svm_type c_svc
kernel_type rbf
gamma 0.25
nr_class 5
total_sv 1972
rho 0.0633328 0.0117484 0.465458 0.42588 0.100903 0.474591 0.451836 0.383329 0.429229 -0.0812096
label 4 3 1 5 2
nr_sv 280 606 860 114 112
SV
0 1 0.1931007296009747 0.522111677074268 1:0.3 2:1 3:0.75755325 
0 1 0 0 1:0.3 2:0.8 3:0.67271242 
0 1 0 0 1:0.3 2:0.8 3:0.63705775 
0 1 0 0 1:0.3 2:0.8 3:0.68044388 
0 1 0 0 1:0.3 2:0.5 3:0.45668048 
0 1 0 0 1:0.3 2:0.8 3:0.64983261 
0 1 0 0 1:0.3 2:0.5 3:0.51396087 
0 1 0 0 1:0.3 2:0.5 3:0.51528141 
0 1 0 0 1:0.3 2:0.8 3:0.66168424 
0 1 0 0 1:0.3 2:0.8 3:0.64983261 
0 1 0 0 1:0.3 2:0.8 3:0.64983261 
0 1 0 0 1:0.3 2:0.8 3:0.64983261 
0 1 0 0 1:0.3 2:0.5 3:0.4592371 
0 1 0 0 1:0.3 2:0.5 3:0.47177899 
0 1 0 0 1:0.3 2:0.5 3:0.53923127 
0 1 0 0 1:0.3 2:0.5 3:0.52807564 
0 1 0 0 1:0.3 2:0.5 3:0.51583236 
0 1 1 1 1:0.3 2:1 3:0.76860501 
0 1 0 0 1:0.3 2:0.5 3:0.4592371 
0 1 0 0 1:0.3 2:0.8 3:0.64983261 
0 1 0 0 1:0.3 2:0.8 3:0.63841593 
0 1 0 0 1:0.3 2:0.5 3:0.53063503 
0 0.9478110154126507 0 0 1:0.3 2:0.5 3:0.45220596 
0 1 0 0 1:0.3 2:0.8 3:0.62872472 
0 1 0 0 1:0.3 2:0.5 3:0.50013116 
0 1 0 0 1:0.3 2:0.5 3:0.53035897 
0 1 0 0 1:0.3 2:0.5 3:0.4687801 
0 1 0 0 1:0.3 2:0.8 3:0.67967847 
0 1 0 0 1:0.3 2:0.8 3:0.63947681 
0 1 0 0 1:0.3 2:0.8 3:0.634253 
0 1 0 0 1:0.3 2:0.5 3:0.49410743 
0 1 0 0 1:0.3 2:0.5 3:0.5 
0 1 0 0 1:0.3 2:0.8 3:0.63071677 
0 1 0 0 1:0.3 2:0.5 3:0.50000504 
0 1 0 0 1:0.3 2:0.8 3:0.63684323 
0 1 0 0 1:0.3 2:0.8 3:0.66950774 
0 1 0 0 1:0.3 2:0.8 3:0.64983261 
0 1 0 0 1:0.3 2:0.8 3:0.65878519 
0 1 0 0 1:0.3 2:0.8 3:0.68777937 
0 1 0 0 1:0.3 2:0.8 3:0.66782403 
0 1 0 0 1:0.3 2:0.5 3:0.50303522 
0 1 0 0 1:0.3 2:0.8 3:0.68958482 
0 1 0 0 1:0.3 2:0.8 3:0.64709023 
0 1 0 0 1:0.3 2:0.5 3:0.53923127 
0 1 0 0 1:0.3 2:0.8 3:0.63705775 
0 1 0 0 1:0.3 2:0.8 3:0.70096326 
0 1 0 0 1:0.3 2:0.5 3:0.47765148 
0 1 0 0 1:0.3 2:0.5 3:0.4592371 
0 1 0 0 1:0.3 2:0.8 3:0.63841593 
0 1 0 0 1:0.3 2:0.8 3:0.64983261 
0 1 0 0 1:0.3 2:0.8 3:0.66179493 
0 1 0 0 1:0.3 2:0.8 3:0.63289514 
0 1 0 0 1:0.3 2:0.5 3:0.5423592 
1 1 0 0 1:0.3 2:0.5 3:0.5483011 
0 1 0 0 1:0.3 2:0.5 3:0.51646107 
0 1 0 0 1:0.3 2:0.8 3:0.68227595 
1 1 0 0 1:0.3 2:0.5 3:0.54572251 
0 1 0 0 1:0.3 2:0.8 3:0.62967145 
0 1 0 0 1:0.3 2:0.5 3:0.46980637 
0 1 0 0 1:0.3 2:0.8 3:0.64983261 
0 1 0 0 1:0.3 2:0.8 3:0.6889337 
0 1 0 0 1:0.3 2:0.5 3:0.46332735 
0 1 0 0 1:0.3 2:0.5 3:0.46727318 
0 1 0 0 1:0.3 2:0.8 3:0.63841593 
0 1 0 0 1:0.3 2:0.8 3:0.63519162 
0 1 0 0 1:0.3 2:0.8 3:0.61401987 
0 1 0 0 1:0.3 2:0.5 3:0.53923127 
0 1 0 0 1:0.3 2:0.5 3:0.51649365 
0 1 0 0 1:0.3 2:0.5 3:0.47530878 
0 1 0 0 1:0.3 2:0.5 3:0.5423592 
0 1 0 0 1:0.3 2:0.8 3:0.64983261 
0 1 0 0 1:0.3 2:0.8 3:0.70396045 
0 1 0 0 1:0.3 2:0.8 3:0.68152466 
0 1 0 0 1:0.3 2:0.5 3:0.53198877 
0 1 0 0 1:0.3 2:0.8 3:0.69452736 
0 1 0 0 1:0.3 2:0.8 3:0.63841593 
1 1 0 1 1:0.3 2:0.5 3:0.55416805 
0 1 0 0 1:0.3 2:0.5 3:0.5423592 
0 1 0 0 1:0.3 2:0.8 3:0.64983261 
0 1 0 0 1:0.3 2:0.8 3:0.63841593 
0 1 0 0 1:0.3 2:0.5 3:0.4592371 
0 1 0 0 1:0.3 2:0.8 3:0.64862821 
0 1 0 0 1:0.3 2:0.5 3:0.46064544 
0 1 0 0 1:0.3 2:0.8 3:0.64974952 
0 1 0 0 1:0.3 2:0.5 3:0.51016915 
0 1 0 0 1:0.3 2:0.8 3:0.70369294 
0 1 0 0 1:0.3 2:0.8 3:0.64983261 
1 1 0 0 1:0.3 2:0.5 3:0.54807776 
0 1 0 0 1:0.3 2:0.5 3:0.46332735 
0 1 0 0 1:0.3 2:0.5 3:0.52296898 
0 1 0 0 1:0.3 2:0.8 3:0.61224747 
0 1 0 0 1:0.3 2:0.5 3:0.4592371 
0 1 0 0 1:0.3 2:0.5 3:0.52342877 
1 1 0 0 1:0.3 2:0.5 3:0.5483011 
0 1 0 0 1:0.3 2:0.5 3:0.46732908 
0 1 0 0 1:0.3 2:0.8 3:0.61658332 
0 1 0 0 1:0.3 2:0.8 3:0.66106978 
0 1 0 0 1:0.3 2:0.8 3:0.6745567 
0 1 0 0 1:0.3 2:0.8 3:0.63841593 
0 1 0 0 1:0.3 2:0.5 3:0.51253116 
0 1 0 0 1:0.3 2:0.5 3:0.48764706 
0 1 0 0 1:0.3 2:0.8 3:0.64983261 
0 1 0 0 1:0.3 2:0.8 3:0.64983261 
0 1 0 0 1:0.3 2:0.5 3:0.46224362 
0 1 0 0 1:0.3 2:0.8 3:0.66733396 
0 1 0 0 1:0.3 2:0.5 3:0.53357872 
1 1 0 0 1:0.3 2:0.5 3:0.5483011 
0 1 0 0 1:0.3 2:0.8 3:0.60821345 
0 1 0 0 1:0.3 2:0.8 3:0.67891788 
0 1 0 0 1:0.3 2:0.5 3:0.52144328 
0 1 0 0 1:0.3 2:0.5 3:0.49028611 
0 1 0 0 1:0.3 2:0.8 3:0.66156459 
0 1 0 0 1:0.3 2:0.8 3:0.65842897 
0 1 0 0 1:0.3 2:0.5 3:0.50103718 
0 1 0 0 1:0.3 2:0.8 3:0.63841593 
0 1 0 0 1:0.3 2:0.8 3:0.63841593 
0 1 0 0 1:0.3 2:0.8 3:0.64983261 
0 1 0 0 1:0.3 2:0.5 3:0.52624127 
0 1 0 0 1:0.3 2:0.8 3:0.61805016 
0 1 0 0 1:0.3 2:0.8 3:0.646806 
0 1 0 0 1:0.3 2:0.5 3:0.54085663 
0 1 0 0 1:0.3 2:0.8 3:0.63522321 
0 1 0 0 1:0.3 2:0.8 3:0.63841593 
0 1 0 0 1:0.3 2:0.8 3:0.64285713 
0 1 0 0 1:0.3 2:0.5 3:0.5 
0 1 0 0 1:0.3 2:0.5 3:0.53914505 
0 1 0 0 1:0.3 2:0.8 3:0.6214247 
0 1 0 0 1:0.3 2:0.8 3:0.68438834 
0 1 0 0 1:0.3 2:0.5 3:0.45612133 
0 1 0 0 1:0.3 2:0.8 3:0.65856561 
0 1 0 0 1:0.3 2:0.8 3:0.61761883 
0 1 0 0 1:0.3 2:0.5 3:0.47369492 
0 1 0 0 1:0.3 2:0.5 3:0.5377107 
0 1 0 0 1:0.3 2:0.8 3:0.64468527 
0 1 0 0 1:0.3 2:1 3:0.72889331 
0 1 0 0 1:0.3 2:0.8 3:0.68941826 
0 1 0 0 1:0.3 2:0.5 3:0.51115215 
0 1 0 0 1:0.3 2:0.8 3:0.64983261 
0 1 0 0 1:0.3 2:0.8 3:0.61224747 
0 1 0 0 1:0.3 2:0.5 3:0.48158896 
0 1 0 0 1:0.3 2:0.5 3:0.49358833 
0 1 0 0 1:0.3 2:0.8 3:0.6214247 
0 1 0 0 1:0.3 2:0.5 3:0.53913993 
0 1 0 0 1:0.3 2:0.5 3:0.50247598 
0 1 0 0 1:0.3 2:0.8 3:0.6889337 
0 1 0 0 1:0.3 2:0.5 3:0.52853924 
0 1 0 0 1:0.3 2:0.5 3:0.52329943 
0 1 0 0 1:0.3 2:0.5 3:0.52853924 
0 1 0 0 1:0.3 2:0.8 3:0.65199748 
0 1 0 0 1:0.3 2:0.8 3:0.69037995 
0 1 0 0 1:0.3 2:0.5 3:0.50530088 
1 1 0 0 1:0.3 2:0.5 3:0.5483011 
0 1 0 0 1:0.3 2:0.8 3:0.68152466 
0 1 0 0 1:0.3 2:0.8 3:0.63860929 
0 1 0 0 1:0.3 2:0.8 3:0.68152466 
0 1 0 0 1:0.3 2:0.5 3:0.50101632 
0 1 0 0 1:0.3 2:0.8 3:0.64416116 
1 1 0 0.5873546430146879 1:0.3 2:0.5 3:0.55138323 
1 1 0 0 1:0.3 2:0.5 3:0.5483011 
0 1 0 0 1:0.3 2:0.8 3:0.66756529 
0 1 0 0 1:0.3 2:0.8 3:0.64218339 
0 1 0 0 1:0.3 2:0.8 3:0.61487523 
0 1 0 0 1:0.3 2:0.8 3:0.62821692 
0 1 0 0 1:0.3 2:0.8 3:0.67722785 
0 1 0 0 1:0.3 2:0.8 3:0.62057018 
0 1 0 0 1:0.3 2:0.5 3:0.45873803 
0 1 0 0 1:0.3 2:0.8 3:0.66509491 
1 1 0 0 1:0.3 2:0.5 3:0.55023775 
0 1 0 0 1:0.3 2:0.5 3:0.53758502 
0 1 0 0 1:0.3 2:0.5 3:0.45286679 
0 1 0 0 1:0.3 2:1 3:0.73121515 
0 1 0 0 1:0.3 2:0.8 3:0.64121404 
0 1 0 0 1:0.3 2:0.5 3:0.50103718 
0 1 1 1 1:0.3 2:1 3:0.79599842 
0 1 0 0 1:0.3 2:0.8 3:0.63967538 
0 1 0 0 1:0.3 2:0.8 3:0.64776599 
0 1 0 0 1:0.3 2:0.5 3:0.52853924 
0 1 0 0 1:0.3 2:0.8 3:0.63841593 
0 1 0 0 1:0.3 2:0.8 3:0.64468527 
0 1 0 0 1:0.3 2:0.5 3:0.47664684 
0 1 0 0 1:0.3 2:0.8 3:0.64468527 
0 1 0 0 1:0.3 2:0.8 3:0.64983261 
0 1 0 0 1:0.3 2:0.8 3:0.60798633 
0 1 0 0 1:0.3 2:0.5 3:0.52624127 
0 1 0 0 1:0.3 2:0.5 3:0.52624127 
0 1 0 0 1:0.3 2:0.8 3:0.64468527 
0 1 0 0 1:0.3 2:0.8 3:0.62424698 
0 1 0 0 1:0.3 2:0.8 3:0.67561737 
0 1 0 0 1:0.3 2:0.8 3:0.64983261 
0 1 0 0 1:0.3 2:0.8 3:0.65856561 
0 1 0 0 1:0.3 2:0.5 3:0.46356422 
0 1 0 0 1:0.3 2:0.8 3:0.63906726 
0 1 0 0 1:0.3 2:0.5 3:0.535162 
0 1 0 0 1:0.3 2:0.8 3:0.65856561 
0 1 0 0 1:0.3 2:0.5 3:0.48052078 
0 1 0 0 1:0.3 2:0.8 3:0.62451217 
0 1 0 0 1:0.3 2:0.8 3:0.65856561 
0 1 0 0 1:0.3 2:0.8 3:0.64983261 
0 1 0 0 1:0.3 2:0.8 3:0.69019598 
0 1 0 0 1:0.3 2:0.5 3:0.49452323 
0 1 0 0 1:0.3 2:0.5 3:0.49460536 
0 1 0 0 1:0.3 2:0.8 3:0.64396089 
0 1 0 0 1:0.3 2:0.8 3:0.69255796 
0 1 0 0 1:0.3 2:0.8 3:0.64983261 
0 1 0 0 1:0.3 2:0.5 3:0.47348976 
0 1 0 0 1:0.3 2:0.5 3:0.49452323 
0 1 0 0 1:0.3 2:1 3:0.74725947 
0 1 0 0 1:0.3 2:0.8 3:0.64983261 
0 1 0 0 1:0.3 2:0.8 3:0.6259295 
0 1 0 0 1:0.3 2:0.5 3:0.53923127 
0 1 0 0 1:0.3 2:0.5 3:0.52402726 
0 1 0 0 1:0.3 2:0.8 3:0.66654679 
1 1 0 0 1:0.3 2:0.5 3:0.55023775 
0 1 0 0 1:0.3 2:0.8 3:0.68649495 
0 1 0 0 1:0.3 2:0.8 3:0.63841593 
1 1 0 0 1:0.3 2:0.5 3:0.54743391 
0 1 0 0 1:0.3 2:0.8 3:0.66101456 
0 1 0 0 1:0.3 2:0.8 3:0.66331884 
0 1 0 0 1:0.3 2:0.8 3:0.62113261 
0 1 0 0 1:0.3 2:0.8 3:0.61224747 
0 1 0 0 1:0.3 2:0.8 3:0.67852905 
0 1 0 0 1:0.3 2:0.8 3:0.65375233 
0 1 0 0 1:0.3 2:0.8 3:0.6455408 
0 1 0 0 1:0.3 2:0.5 3:0.48078483 
0 1 0 0 1:0.3 2:0.5 3:0.49858004 
0 1 0 0 1:0.3 2:0.8 3:0.64285713 
0 1 0 0 1:0.3 2:0.8 3:0.67967847 
0 1 0 0 1:0.3 2:0.8 3:0.63841593 
0 1 0 0 1:0.3 2:0.5 3:0.46747434 
0 1 0 0 1:0.3 2:0.5 3:0.4592371 
0 1 0 0 1:0.3 2:0.5 3:0.52624127 
0 1 0 0 1:0.3 2:0.5 3:0.48209381 
0 1 0 0 1:0.3 2:0.5 3:0.50092006 
0 1 0 0 1:0.3 2:0.5 3:0.53995395 
0 1 0 0 1:0.3 2:0.8 3:0.68152466 
0 1 0 0 1:0.3 2:0.8 3:0.63985169 
0 1 0 0 1:0.3 2:0.5 3:0.50013116 
0 1 0 0 1:0.3 2:0.8 3:0.64468527 
0 1 0 0 1:0.3 2:0.5 3:0.4592371 
0 1 0 0 1:0.3 2:0.5 3:0.45252973 
0 1 0 0 1:0.3 2:0.8 3:0.63841593 
0 1 0 0 1:0.3 2:0.5 3:0.52887174 
0 1 0 0 1:0.3 2:0.8 3:0.64983261 
0.6256234661806489 1 0 0 1:0.3 2:0.5 3:0.54569805 
0 1 0 0 1:0.3 2:0.5 3:0.4563207 
0 1 0 0 1:0.3 2:0.5 3:0.48909998 
0 1 0 0 1:0.3 2:0.8 3:0.66710407 
0 1 0 0 1:0.3 2:0.5 3:0.49424475 
0 1 0 0 1:0.3 2:0.8 3:0.63199434 
0 1 0 0 1:0.3 2:0.8 3:0.65263519 
0 1 0 0 1:0.3 2:0.5 3:0.51857394 
0.9119932679950471 0 0 0 1:0.3 2:0.5 3:1.7881393e-07 
0 1 0 0 1:0.3 2:0.8 3:0.63841593 
1 0 0 0 1:0.3 2:0.5 3:1.7881393e-07 
0 1 0 0 1:0.3 2:0.8 3:0.63397041 
0 1 0 0 1:0.3 2:0.5 3:0.50061777 
1 0 0 0 1:0.3 2:0.5 3:1.7881393e-07 
1 0 0 0 1:0.3 2:0.5 3:1.7881393e-07 
0 1 0 0 1:0.3 2:0.8 3:0.64983261 
1 0 0 0 1:0.3 2:0.5 3:1.7881393e-07 
0 1 0 0 1:0.3 2:0.8 3:0.64468527 
1 0 0 0 1:0.3 2:0.5 3:1.7881393e-07 
1 0 0 0 1:0.3 2:0.5 3:1.7881393e-07 
1 0 0 0 1:0.3 2:0.5 3:1.7881393e-07 
1 0 0 0 1:0.3 2:0.5 3:1.7881393e-07 
1 0 0 0 1:0.3 2:0.5 3:1.7881393e-07 
1 0 0 0 1:0.3 2:0.5 3:1.7881393e-07 
0 0 0.09804571604039301 0 1:0.3 2:1 3:5.9604645e-08 
1 0 0 0 1:0.3 2:0.5 3:1.7881393e-07 
0 1 0 0 1:0.3 2:0.8 3:0.61655492 
0 1 0 0 1:0.3 2:0.8 3:0.64983261 
0 1 0 0 1:0.3 2:0.8 3:0.63762894 
1 0 0 0 1:0.3 2:0.5 3:1.7881393e-07 
0 1 0 0 1:0.3 2:0.8 3:0.63841593 
0.9266467618260854 0 0 0 1:0.3 2:0.5 3:1.7881393e-07 
0 1 0 0 1:0.3 2:0.5 3:0.51954779 
0 0 0.5857076096803516 0 1:0.3 2:0.5 
0 0 1 0.8795362993566996 1:0.3 2:0.5 
0 0 0.3815549547723043 0 1:0.3 2:0.5 3:1.1920929e-07 
0 0 1 0 1:0.3 2:0.5 3:5.9604645e-08 
-0 1 0 0 1:0.3 2:0.1 3:0.50362852 
-0 1 0 0 1:0.3 2:0.1 3:0.46106821 
-0 1 0 0 1:0.3 2:0.1 3:0.4646486 
-0 1 0 0 1:0.3 2:0.1 3:0.47332203 
-0 1 0 0 1:0.3 2:0.1 3:0.4687801 
-0 1 0 0 1:0.3 2:0.1 3:0.50667864 
-0 1 0 0 1:0.3 2:0.1 3:0.48119682 
-0 1 0 0 1:0.3 2:0.1 3:0.50103718 
-0 1 0 0 1:0.3 2:0.1 3:0.49882436 
-0 1 0 0 1:0.3 2:0.1 3:0.45971251 
-0 1 0 0 1:0.3 2:0.1 3:0.48935676 
-0 1 0 0 1:0.3 2:0.1 3:0.4592371 
-0 1 0 0 1:0.3 2:0.1 3:0.48074687 
-0 1 0 0 1:0.3 2:0.1 3:0.50966904 
-0 1 0 0 1:0.3 2:0.1 3:0.49259108 
-0 1 0 0 1:0.3 2:0.1 3:0.50896305 
-0 1 0 0 1:0.3 2:0.1 3:0.4592371 
-0 1 0 0 1:0.3 2:0.1 3:0.50809827 
-0 1 0 0 1:0.3 2:0.1 3:0.49589121 
-0 1 0 0 1:0.3 2:0.1 3:0.49259108 
-0 1 0 0 1:0.3 2:0.1 3:0.46030337 
-0 1 0 0 1:0.3 2:0.1 3:0.49349236 
-0 1 0 0 1:0.3 2:0.1 3:0.50103718 
-0 1 0 0 1:0.3 2:0.1 3:0.46519792 
-0 1 0 0 1:0.3 2:0.1 3:0.48345345 
-0 1 0 0 1:0.3 2:0.1 3:0.45457327 
-0 1 0 0 1:0.3 2:0.1 3:0.49228442 
-0 1 0 0 1:0.3 2:0.1 3:0.49259108 
-0 1 0 0 1:0.3 2:0.1 3:0.45971251 
-0 1 0 0 1:0.3 2:0.1 3:0.4592371 
-1 1 0 0 1:0.3 2:0.1 3:0.5101068 
-1 1 0 0 1:0.3 2:0.1 3:0.51047841 
-0 1 0 0 1:0.3 2:0.1 3:0.46669966 
-0 1 0 0 1:0.3 2:0.1 3:0.49259108 
-0 1 0 0 1:0.3 2:0.1 3:0.50477448 
-0 1 0 0 1:0.3 2:0.1 3:0.47864652 
-0 1 0 0 1:0.3 2:0.1 3:0.48556149 
-0 1 0 0 1:0.3 2:0.1 3:0.4592371 
-0 1 0 0 1:0.3 2:0.1 3:0.49259108 
-0 1 0 0 1:0.3 2:0.1 3:0.50294551 
-0 1 0 0 1:0.3 2:0.1 3:0.50103718 
-0 1 0 0 1:0.3 2:0.1 3:0.49562174 
-0 1 0 0 1:0.3 2:0.1 3:0.50103718 
-0 1 0 0 1:0.3 2:0.1 3:0.4592371 
-0 1 0 0 1:0.3 2:0.1 3:0.50103718 
-0 1 0 0 1:0.3 2:0.1 3:0.47559661 
-0 1 0 0 1:0.3 2:0.1 3:0.4872424 
-0 1 0 0 1:0.3 2:0.1 3:0.48000777 
-0 1 0 0 1:0.3 2:0.1 3:0.50103718 
-0 1 0 0 1:0.3 2:0.1 3:0.46669966 
-0 1 0 0 1:0.3 2:0.1 3:0.46669966 
-0 1 0 0 1:0.3 2:0.1 3:0.49899286 
-0 1 0 0 1:0.3 2:0.1 3:0.45248479 
-0 1 0 0 1:0.3 2:0.1 3:0.46668458 
-0 1 0 0 1:0.3 2:0.1 3:0.49452323 
-0 1 0 0 1:0.3 2:0.1 3:0.46980786 
-0 1 0 0 1:0.3 2:0.1 3:0.49264473 
-1 1 0 0 1:0.3 2:0.1 3:0.51047474 
-0 1 0 0 1:0.3 2:0.1 3:0.50629318 
-0 1 0 0 1:0.3 2:0.1 3:0.50802067 
-0 1 0 0 1:0.3 2:0.1 3:0.47100687 
-0 1 0 0 1:0.3 2:0.1 3:0.4798516 
-0 1 0 0 1:0.3 2:0.1 3:0.46267605 
-0 1 0 0 1:0.3 2:0.1 3:0.49460536 
-0 1 0 0 1:0.3 2:0.1 3:0.48921186 
-0 1 0 0 1:0.3 2:0.1 3:0.50103718 
-0 1 0 0 1:0.3 2:0.1 3:0.46669966 
-0 1 0 0 1:0.3 2:0.1 3:0.4675647 
-0 1 0 0 1:0.3 2:0.1 3:0.46491879 
-0 1 0 0 1:0.3 2:0.1 3:0.46669966 
-0 1 0 0 1:0.3 2:0.1 3:0.50103718 
-0 1 0 0 1:0.3 2:0.1 3:0.49096417 
-0 1 0 0 1:0.3 2:0.1 3:0.47470993 
-0 1 0 0 1:0.3 2:0.1 3:0.46519792 
-0 1 0 0 1:0.3 2:0.1 3:0.50599688 
-0 1 0 0 1:0.3 2:0.1 3:0.48582017 
-0 1 0 0 1:0.3 2:0.1 3:0.47220105 
-0 1 0 0 1:0.3 2:0.1 3:0.4592371 
-0 1 0 0 1:0.3 2:0.1 3:0.4592371 
-0 1 0 0 1:0.3 2:0.1 3:0.50103718 
-0 1 0 0 1:0.3 2:0.1 3:0.48012072 
-0 1 0 0 1:0.3 2:0.1 3:0.50103718 
-0 1 0 0 1:0.3 2:0.1 3:0.48228765 
-0 1 0 0 1:0.3 2:0.1 3:0.46082717 
-0 1 0 0 1:0.3 2:0.1 3:0.46669966 
-0 1 0 0 1:0.3 2:0.1 3:0.46946222 
-1 0 0.343277643069008 0 1:0.05 2:0.1 3:0.0064555407 
-0 1 0 0 1:0.3 2:0.1 3:0.4592371 
-0 1 0 0 1:0.3 2:0.1 3:0.4592371 
-0 1 0 0 1:0.3 2:0.1 3:0.48864281 
-0 1 0 0 1:0.3 2:0.1 3:0.45971251 
-0 1 0 0 1:0.3 2:0.1 3:0.45681274 
-0 1 0 0 1:0.3 2:0.1 3:0.46720093 
-0 1 0 0 1:0.3 2:0.1 3:0.4592371 
-0 1 0 0 1:0.3 2:0.1 3:0.4592371 
-0 1 0 0 1:0.3 2:0.1 3:0.46361554 
-0 1 0 0 1:0.3 2:0.1 3:0.50073186 
-0 1 0 0 1:0.3 2:0.1 3:0.4592371 
-0 1 0 0 1:0.3 2:0.1 3:0.47279191 
-0 1 0 0 1:0.3 2:0.1 3:0.4592371 
-0 1 0 0 1:0.3 2:0.1 3:0.50103718 
-0 1 0 0 1:0.3 2:0.1 3:0.49476796 
-0 1 0 0 1:0.3 2:0.1 3:0.45192075 
-0 1 0 0 1:0.3 2:0.1 3:0.50040132 
-0 1 0 0 1:0.3 2:0.1 3:0.50103718 
-0 1 0 0 1:0.3 2:0.1 3:0.50477448 
-0 1 0 0 1:0.3 2:0.1 3:0.50103718 
-0 1 0 0 1:0.3 2:0.1 3:0.47871321 
-1 0 1 0.08432649096340677 1:0.05 2:0.1 3:0.0053760409 
-0 1 0 0 1:0.3 2:0.1 3:0.45692593 
-0 1 0 0 1:0.3 2:0.1 3:0.45197409 
-0 1 0 0 1:0.3 2:0.1 3:0.45220608 
-0 1 0 0 1:0.3 2:0.1 3:0.49931079 
-0 1 0 0 1:0.3 2:0.1 3:0.4592371 
-0 1 0 0 1:0.3 2:0.1 3:0.49259108 
-0 1 0 0 1:0.3 2:0.1 3:0.4592371 
-0 1 0 0 1:0.3 2:0.1 3:0.50103718 
-0 1 0 0 1:0.3 2:0.1 3:0.49087709 
-0 1 0 0 1:0.3 2:0.1 3:0.49878371 
-0 1 0 0 1:0.3 2:0.1 3:0.48063338 
-0 1 0 0 1:0.3 2:0.1 3:0.50103718 
-0 1 0 0 1:0.3 2:0.1 3:0.48000777 
-0 1 0 0 1:0.3 2:0.1 3:0.45336503 
-0 1 0 0 1:0.3 2:0.1 3:0.48935676 
-0 1 0 0 1:0.3 2:0.1 3:0.50103718 
-0 1 0 0 1:0.3 2:0.1 3:0.50013116 
-0 1 0 0 1:0.3 2:0.1 3:0.4592371 
-0 1 0 0 1:0.3 2:0.1 3:0.49259108 
-0 1 0 0 1:0.3 2:0.1 3:0.48052078 
-0 1 0 0 1:0.3 2:0.1 3:0.50351247 
-0 1 0 0 1:0.3 2:0.1 3:0.4754771 
-0 1 0 0 1:0.3 2:0.1 3:0.49537492 
-0 1 0 0 1:0.3 2:0.1 3:0.48228765 
-0 1 0 0 1:0.3 2:0.1 3:0.49444896 
-0 1 0 0 1:0.3 2:0.1 3:0.50653815 
-0 1 0 0 1:0.3 2:0.1 3:0.47593778 
-0 1 0 0 1:0.3 2:0.1 3:0.4592371 
-0 1 0 0 1:0.3 2:0.1 3:0.47220105 
-0 1 0 0 1:0.3 2:0.1 3:0.45192075 
-0 1 0 0 1:0.3 2:0.1 3:0.46309376 
-0 1 0 0 1:0.3 2:0.1 3:0.48935676 
-0 1 0 0 1:0.3 2:0.1 3:0.4775812 
-0 1 0 0 1:0.3 2:0.1 3:0.48935676 
-0 1 0 0 1:0.3 2:0.1 3:0.50103718 
-0 1 0 0 1:0.3 2:0.1 3:0.45461595 
-0 1 0 0 1:0.3 2:0.1 3:0.50103718 
-0 1 0 0 1:0.3 2:0.1 3:0.4592371 
-0 1 0 0 1:0.3 2:0.1 3:0.49259108 
-0 1 0 0 1:0.3 2:0.1 3:0.47619045 
-0 1 0 0 1:0.3 2:0.1 3:0.49460536 
-0 1 0 0 1:0.3 2:0.1 3:0.4592371 
-0 1 0 0 1:0.3 2:0.1 3:0.48489392 
-0 1 0 0 1:0.3 2:0.1 3:0.4592371 
-0 1 0 0 1:0.3 2:0.1 3:0.48508149 
-0 1 0 0 1:0.3 2:0.1 3:0.4592371 
-0 1 0 0 1:0.3 2:0.1 3:0.45215529 
-0 1 0 0 1:0.3 2:0.1 3:0.49582666 
-0 1 0 0 1:0.3 2:0.1 3:0.46345371 
-0 1 0 0 1:0.3 2:0.1 3:0.50103718 
-0 1 0 0 1:0.3 2:0.1 3:0.45282888 
-0 1 0 0 1:0.3 2:0.1 3:0.48508149 
-0 1 0 0 1:0.3 2:0.1 3:0.50103718 
-0 1 0 0 1:0.3 2:0.1 3:0.45220608 
-0 1 0 0 1:0.3 2:0.1 3:0.49052858 
-0 1 0 0 1:0.3 2:0.1 3:0.50103718 
-0 1 0 0 1:0.3 2:0.1 3:0.49259108 
-0 1 0 0 1:0.3 2:0.1 3:0.47392523 
-0 1 0 0 1:0.3 2:0.1 3:0.50745726 
-0 1 0 0 1:0.3 2:0.1 3:0.50301397 
-0 1 0 0 1:0.3 2:0.1 3:0.4592371 
-0 1 0 0 1:0.3 2:0.1 3:0.48296595 
-0 1 0 0 1:0.3 2:0.1 3:0.49259108 
-0 1 0 0 1:0.3 2:0.1 3:0.46895558 
-0 1 0 0 1:0.3 2:0.1 3:0.50103718 
-0 1 0 0 1:0.3 2:0.1 3:0.49347812 
-0 1 0 0 1:0.3 2:0.1 3:0.45400691 
-0 1 0 0 1:0.3 2:0.1 3:0.50103718 
-0 1 0 0 1:0.3 2:0.1 3:0.45192075 
-0 1 0 0 1:0.3 2:0.1 3:0.50103718 
-0 1 0 0 1:0.3 2:0.1 3:0.46669966 
-0 1 0 0 1:0.3 2:0.1 3:0.45220608 
-0 1 0 0 1:0.3 2:0.1 3:0.45220608 
-0 1 0 0 1:0.3 2:0.1 3:0.49001104 
-0 1 0 0 1:0.3 2:0.1 3:0.50103718 
-0 1 0 0 1:0.3 2:0.1 3:0.47008526 
-0 1 0 0 1:0.3 2:0.1 3:0.45971251 
-0 1 0 0 1:0.3 2:0.1 3:0.47947508 
-0 1 0 0 1:0.3 2:0.1 3:0.4592371 
-0 1 0 0 1:0.3 2:0.1 3:0.48619497 
-0 1 0 0 1:0.3 2:0.1 3:0.50103718 
-0 1 0 0 1:0.3 2:0.1 3:0.46491879 
-0 1 0 0 1:0.3 2:0.1 3:0.50103718 
-0 1 0 0 1:0.3 2:0.1 3:0.50086743 
-0 1 0 0 1:0.3 2:0.1 3:0.46332735 
-0 1 0 0 1:0.3 2:0.1 3:0.50103718 
-0 1 0 0 1:0.3 2:0.1 3:0.45674479 
-0 1 0 0 1:0.3 2:0.1 3:0.48085469 
-0 1 0 0 1:0.3 2:0.1 3:0.47354698 
-0 1 0 0 1:0.3 2:0.1 3:0.46724987 
-0 1 0 0 1:0.3 2:0.1 3:0.46669966 
-0 1 0 0 1:0.3 2:0.1 3:0.49460536 
-0 1 0 0 1:0.3 2:0.1 3:0.49259108 
-0 1 0 0 1:0.3 2:0.1 3:0.50249591 
-0 1 0 0 1:0.3 2:0.1 3:0.49259108 
-0 1 0 0 1:0.3 2:0.1 3:0.45681274 
-0 1 0 0 1:0.3 2:0.1 3:0.48667747 
-0 1 0 0 1:0.3 2:0.1 3:0.49537635 
-0 1 0 0 1:0.3 2:0.1 3:0.50103718 
-0 1 0 0 1:0.3 2:0.1 3:0.50103718 
-0 1 0 0 1:0.3 2:0.1 3:0.47157156 
-0 1 0 0 1:0.3 2:0.1 3:0.46012872 
-0 1 0 0 1:0.3 2:0.1 3:0.50103718 
-0 1 0 0 1:0.3 2:0.1 3:0.46986288 
-0 1 0 0 1:0.3 2:0.1 3:0.47370505 
-0 1 0 0 1:0.3 2:0.1 3:0.49037975 
-0 1 0 0 1:0.3 2:0.1 3:0.49589121 
-0 1 0 0 1:0.3 2:0.1 3:0.49801254 
-0 1 0 0 1:0.3 2:0.1 3:0.46492523 
-0 1 0 0 1:0.3 2:0.1 3:0.50103718 
-0 1 0 0 1:0.3 2:0.1 3:0.45971251 
-0 1 0 0 1:0.3 2:0.1 3:0.50103718 
-0 1 0 0 1:0.3 2:0.1 3:0.48935676 
-0 1 0 0 1:0.3 2:0.1 3:0.45971251 
-0 1 0 0 1:0.3 2:0.1 3:0.45192075 
-0 1 0 0 1:0.3 2:0.1 3:0.49259108 
-0 1 0 0 1:0.3 2:0.1 3:0.48332173 
-0 1 0 0 1:0.3 2:0.1 3:0.50966904 
-0 1 0 0 1:0.3 2:0.1 3:0.4592371 
-0 1 0 0 1:0.3 2:0.1 3:0.4592371 
-0 1 0 0 1:0.3 2:0.1 3:0.46258384 
-0 1 0 0 1:0.3 2:0.1 3:0.49763405 
-0 1 0 0 1:0.3 2:0.1 3:0.46669966 
-0 1 0 0 1:0.3 2:0.1 3:0.50103718 
-0 1 0 0 1:0.3 2:0.1 3:0.50599688 
-0 1 0 0 1:0.3 2:0.1 3:0.50013116 
-0 1 0 0 1:0.3 2:0.1 3:0.50103718 
-0 1 0 0 1:0.3 2:0.1 3:0.46267605 
-0 1 0 0 1:0.3 2:0.1 3:0.45956683 
-0 1 0 0 1:0.3 2:0.1 3:0.45382345 
-0 1 0 0 1:0.3 2:0.1 3:0.48830879 
-0 1 0 0 1:0.3 2:0.1 3:0.45984513 
-0 1 0 0 1:0.3 2:0.1 3:0.4622516 
-0 1 0 0 1:0.3 2:0.1 3:0.50645009 
-0 1 0 0 1:0.3 2:0.1 3:0.4790743 
-0 1 0 0 1:0.3 2:0.1 3:0.49460536 
-0 1 0 0 1:0.3 2:0.1 3:0.45971251 
-0 1 0 0 1:0.3 2:0.1 3:0.46669966 
-0 1 0 0 1:0.3 2:0.1 3:0.4800812 
-0 1 0 0 1:0.3 2:0.1 3:0.50071502 
-0 1 0 0 1:0.3 2:0.1 3:0.4794628 
-0 1 0 0 1:0.3 2:0.1 3:0.49702507 
-0 1 0 0 1:0.3 2:0.1 3:0.46370935 
-0 1 0 0 1:0.3 2:0.1 3:0.46380371 
-0 1 0 0 1:0.3 2:0.1 3:0.47851342 
-0 1 0 0 1:0.3 2:0.1 3:0.50218126 
-0 1 0 0 1:0.3 2:0.1 3:0.48954672 
-0 1 0 0 1:0.3 2:0.1 3:0.49340606 
-0 1 0 0 1:0.3 2:0.1 3:0.48794425 
-0 1 0 0 1:0.3 2:0.1 3:0.50103718 
-0 1 0 0 1:0.3 2:0.1 3:0.45416373 
-0 1 0 0 1:0.3 2:0.1 3:0.46760446 
-0 1 0 0 1:0.3 2:0.1 3:0.50013116 
-0 1 0 0 1:0.3 2:0.1 3:0.48296595 
-0 1 0 0 1:0.3 2:0.1 3:0.47316009 
-0 1 0 0 1:0.3 2:0.1 3:0.46526492 
-0 1 0 0 1:0.3 2:0.1 3:0.50103718 
-0 1 0 0 1:0.3 2:0.1 3:0.46014231 
-0 1 0 0 1:0.3 2:0.1 3:0.46212369 
-0 1 0 0 1:0.3 2:0.1 3:0.47220105 
-0 1 0 0 1:0.3 2:0.1 3:0.46442169 
-0 1 0 0 1:0.3 2:0.1 3:0.50966904 
-0 1 0 0 1:0.3 2:0.1 3:0.50103718 
-0 1 0 0 1:0.3 2:0.1 3:0.47220105 
-0 1 0 0 1:0.3 2:0.1 3:0.46669966 
-0 1 0 0 1:0.3 2:0.1 3:0.4609192 
-0 1 0 0 1:0.3 2:0.1 3:0.50362852 
-0 1 0 0 1:0.3 2:0.1 3:0.46491879 
-0 1 0 0 1:0.3 2:0.1 3:0.49240923 
-0 1 0 0 1:0.3 2:0.1 3:0.46332735 
-0 1 0 0 1:0.3 2:0.1 3:0.45919532 
-0 1 0 0 1:0.3 2:0.1 3:0.45915556 
-0 1 0 0 1:0.3 2:0.1 3:0.48313165 
-0 1 0 0 1:0.3 2:0.1 3:0.49985999 
-0 1 0 0 1:0.3 2:0.1 3:0.48297775 
-0 1 0 0 1:0.3 2:0.1 3:0.46669966 
-0 1 0 0 1:0.3 2:0.1 3:0.50103718 
-0 1 0 0 1:0.3 2:0.1 3:0.46514171 
-0 1 0 0 1:0.3 2:0.1 3:0.48818392 
-0 1 0 0 1:0.3 2:0.1 3:0.50966904 
-0 1 0 0 1:0.3 2:0.1 3:0.46669966 
-0 1 0 0 1:0.3 2:0.1 3:0.48777556 
-0 1 0 0 1:0.3 2:0.1 3:0.49855006 
-0 1 0 0 1:0.3 2:0.1 3:0.50103718 
-0 1 0 0 1:0.3 2:0.1 3:0.46669966 
-1 1 0 0.1451494241960646 1:0.3 2:0.1 3:0.51047841 
-0 1 0 0 1:0.3 2:0.1 3:0.45971251 
-0 1 0 0 1:0.3 2:0.1 3:0.50103718 
-0 1 0 0 1:0.3 2:0.1 3:0.46655226 
-0.4079867063059827 1 0 0 1:0.3 2:0.1 3:0.50966904 
-0 1 0 0 1:0.3 2:0.1 3:0.47820336 
-0 1 0 0 1:0.3 2:0.1 3:0.46240902 
-0 1 0 0 1:0.3 2:0.1 3:0.45673519 
-0 1 0 0 1:0.3 2:0.1 3:0.48508149 
-0 1 0 0 1:0.3 2:0.1 3:0.46909058 
-0 1 0 0 1:0.3 2:0.1 3:0.48935676 
-0 1 0 0 1:0.3 2:0.1 3:0.49141365 
-0 1 0 0 1:0.3 2:0.1 3:0.49358833 
-0 1 0 0 1:0.3 2:0.1 3:0.49259108 
-0 1 0 0 1:0.3 2:0.1 3:0.45192075 
-0 1 0 0 1:0.3 2:0.1 3:0.49418926 
-0 1 0 0 1:0.3 2:0.1 3:0.50325263 
-1 1 0 0 1:0.3 2:0.1 3:0.51047474 
-0 1 0 0 1:0.3 2:0.1 3:0.47770852 
-0 1 0 0 1:0.3 2:0.1 3:0.45560116 
-0 1 0 0 1:0.3 2:0.1 3:0.46030337 
-0 1 0 0 1:0.3 2:0.1 3:0.46913254 
-0 1 0 0 1:0.3 2:0.1 3:0.4592371 
-0 1 0 0 1:0.3 2:0.1 3:0.47541988 
-0 1 0 0 1:0.3 2:0.1 3:0.45628393 
-1 1 0 0 1:0.3 2:0.1 3:0.50969473 
-0 1 0 0 1:0.3 2:0.1 3:0.46351933 
-0 1 0 0 1:0.3 2:0.1 3:0.46332735 
-0 1 0 0 1:0.3 2:0.1 3:0.50103718 
-0 1 0 0 1:0.3 2:0.1 3:0.50103718 
-0 1 0 0 1:0.3 2:0.1 3:0.47661901 
-0 1 0 0 1:0.3 2:0.1 3:0.50409091 
-0 1 0 0 1:0.3 2:0.1 3:0.47870511 
-0 1 0 0 1:0.3 2:0.1 3:0.4940843 
-0 1 0 0 1:0.3 2:0.1 3:0.47959369 
-0 1 0 0 1:0.3 2:0.1 3:0.50554541 
-0 1 0 0 1:0.3 2:0.1 3:0.46267605 
-0 1 0 0 1:0.3 2:0.1 3:0.4592371 
-0 1 0 0 1:0.3 2:0.1 3:0.4592371 
-0 1 0 0 1:0.3 2:0.1 3:0.46669966 
-0 1 0 0 1:0.3 2:0.1 3:0.50103718 
-0 1 0 0 1:0.3 2:0.1 3:0.49873829 
-0 1 0 0 1:0.3 2:0.1 3:0.50434405 
-0 1 0 0 1:0.3 2:0.1 3:0.50103718 
-0 1 0 0 1:0.3 2:0.1 3:0.50103718 
-0 1 0 0 1:0.3 2:0.1 3:0.46063882 
-0 1 0 0 1:0.3 2:0.1 3:0.47252291 
-0 1 0 0 1:0.3 2:0.1 3:0.49080241 
-0 1 0 0 1:0.3 2:0.1 3:0.49259108 
-1 1 0 0 1:0.3 2:0.1 3:0.5101068 
-0 1 0 0 1:0.3 2:0.1 3:0.48935676 
-0 1 0 0 1:0.3 2:0.1 3:0.4592371 
-0 1 0 0 1:0.3 2:0.1 3:0.46914601 
-0 1 0 0 1:0.3 2:0.1 3:0.4592371 
-0 1 0 0 1:0.3 2:0.1 3:0.4592371 
-0 1 0 0 1:0.3 2:0.1 3:0.50103718 
-0 1 0 0 1:0.3 2:0.1 3:0.48296595 
-0 1 0 0 1:0.3 2:0.1 3:0.50103718 
-0 1 0 0 1:0.3 2:0.1 3:0.46030337 
-0 1 0 0 1:0.3 2:0.1 3:0.45192075 
-0 1 0 0 1:0.3 2:0.1 3:0.48935676 
-1 1 0 1 1:0.3 2:0.1 3:0.51047841 
-0 1 0 0 1:0.3 2:0.1 3:0.50005251 
-0 1 0 0 1:0.3 2:0.1 3:0.49680007 
-0 1 0 0 1:0.3 2:0.1 3:0.49259108 
-0 1 0 0 1:0.3 2:0.1 3:0.49062771 
-0 1 0 0 1:0.3 2:0.1 3:0.49349219 
-0 1 0 0 1:0.3 2:0.1 3:0.50772467 
-0 1 0 0 1:0.3 2:0.1 3:0.47354698 
-0 1 0 0 1:0.3 2:0.1 3:0.4622516 
-0 1 0 0 1:0.3 2:0.1 3:0.45664918 
-0 1 0 0 1:0.3 2:0.1 3:0.4592371 
-0 1 0 0 1:0.3 2:0.1 3:0.48595363 
-0 1 0 0 1:0.3 2:0.1 3:0.47220105 
-0 1 0 0 1:0.3 2:0.1 3:0.47041714 
-0 1 0 0 1:0.3 2:0.1 3:0.50475535 
-0 1 0 0 1:0.3 2:0.1 3:0.49259108 
-0 1 0 0 1:0.3 2:0.1 3:0.46423548 
-1 1 0 0 1:0.3 2:0.1 3:0.50966904 
-0 1 0 0 1:0.3 2:0.1 3:0.4924556 
-0 1 0 0 1:0.3 2:0.1 3:0.49140894 
-0 1 0 0 1:0.3 2:0.1 3:0.49259108 
-0 1 0 0 1:0.3 2:0.1 3:0.49259108 
-0 1 0 0 1:0.3 2:0.1 3:0.49460536 
-0 1 0 0 1:0.3 2:0.1 3:0.49798846 
-0 1 0 0 1:0.3 2:0.1 3:0.45495838 
-0 1 0 0 1:0.3 2:0.1 3:0.4592371 
-0 1 0 0 1:0.3 2:0.1 3:0.46543884 
-0 1 0 0 1:0.3 2:0.1 3:0.47632515 
-0 1 0 0 1:0.3 2:0.1 3:0.47085184 
-0 1 0 0 1:0.3 2:0.1 3:0.45192075 
-0 1 0 0 1:0.3 2:0.1 3:0.45184296 
-0 1 0 0 1:0.3 2:0.1 3:0.4592371 
-0 1 0 0 1:0.3 2:0.1 3:0.48231715 
-0 1 0 0 1:0.3 2:0.1 3:0.48001337 
-0 1 0 0 1:0.3 2:0.1 3:0.49259108 
-0 1 0 0 1:0.3 2:0.1 3:0.4592371 
-0 1 0 0 1:0.3 2:0.1 3:0.4592371 
-0 1 0 0 1:0.3 2:0.1 3:0.50356159 
-0 1 0 0 1:0.3 2:0.1 3:0.49259108 
-0 1 0 0 1:0.3 2:0.1 3:0.49341917 
-0 1 0 0 1:0.3 2:0.1 3:0.49579358 
-0 1 0 0 1:0.3 2:0.1 3:0.47220105 
-0 1 0 0 1:0.3 2:0.1 3:0.49460536 
-1 1 0 1 1:0.3 2:0.1 3:0.51047841 
-0 1 0 0 1:0.3 2:0.1 3:0.48228753 
-0 1 0 0 1:0.3 2:0.1 3:0.48903751 
-0 1 0 0 1:0.3 2:0.1 3:0.50103718 
-0 1 0 0 1:0.3 2:0.1 3:0.48935676 
-0 1 0 0 1:0.3 2:0.1 3:0.49259108 
-0 1 0 0 1:0.3 2:0.1 3:0.49407446 
-0 1 0 0 1:0.3 2:0.1 3:0.50103718 
-0 1 0 0 1:0.3 2:0.1 3:0.4592371 
-0 1 0 0 1:0.3 2:0.1 3:0.50221184 
-0 1 0 0 1:0.3 2:0.1 3:0.49887425 
-0 1 0 0 1:0.3 2:0.1 3:0.492001 
-0 1 0 0 1:0.3 2:0.1 3:0.50103718 
-0 1 0 0 1:0.3 2:0.1 3:0.4774822 
-0 1 0 0 1:0.3 2:0.1 3:0.49259108 
-0 1 0 0 1:0.3 2:0.1 3:0.4598915 
-0 1 0 0 1:0.3 2:0.1 3:0.49259108 
-0 1 0 0 1:0.3 2:0.1 3:0.50103718 
-0 1 0 0 1:0.3 2:0.1 3:0.48508149 
-0 1 0 0 1:0.3 2:0.1 3:0.48935676 
-0 1 0 0 1:0.3 2:0.1 3:0.48823774 
-0 1 0 0 1:0.3 2:0.1 3:0.46136558 
-0 1 0 0 1:0.3 2:0.1 3:0.48275501 
-0 1 0 0 1:0.3 2:0.1 3:0.49259108 
-0 1 0 0 1:0.3 2:0.1 3:0.45192075 
-0 1 0 0 1:0.3 2:0.1 3:0.45826894 
-0 1 0 0 1:0.3 2:0.1 3:0.4592371 
-0 1 0 0 1:0.3 2:0.1 3:0.50103718 
-0 1 0 0 1:0.3 2:0.1 3:0.50103718 
-0 1 0 0 1:0.3 2:0.1 3:0.46669966 
-0 1 0 0 1:0.3 2:0.1 3:0.50103718 
-0 1 0 0 1:0.3 2:0.1 3:0.49134684 
-0 1 0 0 1:0.3 2:0.1 3:0.50103718 
-1 0 0 0 1:0.05 2:0.1 3:0.011420012 
-0 1 0 0 1:0.3 2:0.1 3:0.50809827 
-0 1 0 0 1:0.3 2:0.1 3:0.46190542 
-0 1 0 0 1:0.3 2:0.1 3:0.45971251 
-0 1 0 0 1:0.3 2:0.1 3:0.50103718 
-0 1 0 0 1:0.3 2:0.1 3:0.47220105 
-0 1 0 0 1:0.3 2:0.1 3:0.50103718 
-0 1 0 0 1:0.3 2:0.1 3:0.48935676 
-0 1 0 0 1:0.3 2:0.1 3:0.46129513 
-0 1 0 0 1:0.3 2:0.1 3:0.48000777 
-0 1 0 0 1:0.3 2:0.1 3:0.47279191 
-0 1 0 0 1:0.3 2:0.1 3:0.45753843 
-0 1 0 0 1:0.3 2:0.1 3:0.50054654 
-0 1 0 0 1:0.3 2:0.1 3:0.49869198 
-0 1 0 0 1:0.3 2:0.1 3:0.47447699 
-0 1 0 0 1:0.3 2:0.1 3:0.4615643 
-0 1 0 0 1:0.3 2:0.1 3:0.50599688 
-0 1 0 0 1:0.3 2:0.1 3:0.46492523 
-0 1 0 0 1:0.3 2:0.1 3:0.46539921 
-0 1 0 0 1:0.3 2:0.1 3:0.4576385 
-0 1 0 0 1:0.3 2:0.1 3:0.47081381 
-0 1 0 0 1:0.3 2:0.1 3:0.4624052 
-0 1 0 0 1:0.3 2:0.1 3:0.49259108 
-0 1 0 0 1:0.3 2:0.1 3:0.46209759 
-0 1 0 0 1:0.3 2:0.1 3:0.4592371 
-0 1 0 0 1:0.3 2:0.1 3:0.46669966 
-0 1 0 0 1:0.3 2:0.1 3:0.4592371 
-0 1 0 0 1:0.3 2:0.1 3:0.50103718 
-0 1 0 0 1:0.3 2:0.1 3:0.50013116 
-0 1 0 0 1:0.3 2:0.1 3:0.48134983 
-0 1 0 0 1:0.3 2:0.1 3:0.49942583 
-0 1 0 0 1:0.3 2:0.1 3:0.48935676 
-0 1 0 0 1:0.3 2:0.1 3:0.46067613 
-1 0 1 0.5710817602018867 1:0.7 2:0.1 3:8.1956387e-05 
-0 1 0 0 1:0.3 2:0.1 3:0.4736228 
-0 1 0 0 1:0.3 2:0.1 3:0.46723157 
-0 1 0 0 1:0.3 2:0.1 3:0.46855831 
-0 1 0 0 1:0.3 2:0.1 3:0.46799678 
-0 1 0 0 1:0.3 2:0.1 3:0.46332735 
-0 1 0 0 1:0.3 2:0.1 3:0.46696568 
-0 1 0 0 1:0.3 2:0.1 3:0.50103718 
-0 1 0 0 1:0.3 2:0.1 3:0.48641795 
-0 1 0 0 1:0.3 2:0.1 3:0.48051631 
-0 1 0 0 1:0.3 2:0.1 3:0.4592371 
-0 1 0 0 1:0.3 2:0.1 3:0.49259108 
-0 1 0 0 1:0.3 2:0.1 3:0.47090441 
-1 1 0.7450802470587188 1 1:0.3 2:0.1 3:0.51047841 
-0 1 0 0 1:0.3 2:0.1 3:0.48755842 
-0 1 0 0 1:0.3 2:0.1 3:0.4592371 
-0 1 0 0 1:0.3 2:0.1 3:0.46332735 
-0 1 0 0 1:0.3 2:0.1 3:0.46208197 
-0 1 0 0 1:0.3 2:0.1 3:0.4592371 
-0 1 0 0 1:0.3 2:0.1 3:0.46332735 
-0 1 0 0 1:0.3 2:0.1 3:0.45197546 
-0 1 0 0 1:0.3 2:0.1 3:0.45238584 
-0 1 0 0 1:0.3 2:0.1 3:0.48459309 
-0 1 0 0 1:0.3 2:0.1 3:0.50103718 
-0 1 0 0 1:0.3 2:0.1 3:0.49401772 
-0 1 0 0 1:0.3 2:0.1 3:0.47571957 
-0 1 0 0 1:0.3 2:0.1 3:0.50599688 
-0 1 0 0 1:0.3 2:0.1 3:0.49460536 
-0 1 0 0 1:0.3 2:0.1 3:0.45425606 
-0 1 0 0 1:0.3 2:0.1 3:0.50103718 
-0 1 0 0 1:0.3 2:0.1 3:0.50708905 
-0 1 0 0 1:0.3 2:0.1 3:0.47114927 
-0.2707088701749016 0 0 0 1:0.7 2:0.1 3:0.0045404434 
-0 1 0 0 1:0.3 2:0.1 3:0.46395624 
-0 1 0 0 1:0.3 2:0.1 3:0.45959288 
-0 1 0 0 1:0.3 2:0.1 3:0.50103718 
-0 1 0 0 1:0.3 2:0.1 3:0.50103718 
-0 1 0 0 1:0.3 2:0.1 3:0.5004271 
-0 1 0 0 1:0.3 2:0.1 3:0.46418148 
-0 1 0 0 1:0.3 2:0.1 3:0.4754104 
-0 1 0 0 1:0.3 2:0.1 3:0.45215529 
-0 1 0 0 1:0.3 2:0.1 3:0.49543184 
-0 1 0 0 1:0.3 2:0.1 3:0.50103718 
-0 1 0 0 1:0.3 2:0.1 3:0.50856045 
-0 1 0 0 1:0.3 2:0.1 3:0.4592371 
-0 1 0 0 1:0.3 2:0.1 3:0.46348614 
-0 1 0 0 1:0.3 2:0.1 3:0.50103718 
-0 1 0 0 1:0.3 2:0.1 3:0.49424475 
-0 1 0 0 1:0.3 2:0.1 3:0.50103718 
-0 1 0 0 1:0.3 2:0.1 3:0.48527378 
-0 1 0 0 1:0.3 2:0.1 3:0.49698955 
-0 1 0 0 1:0.3 2:0.1 3:0.4592371 
-0 1 0 0 1:0.3 2:0.1 3:0.4592371 
-0 1 0 0 1:0.3 2:0.1 3:0.45303178 
-1 1 0 0 1:0.3 2:0.1 3:0.5101068 
-0 1 0 0 1:0.3 2:0.1 3:0.48296595 
-0 1 0 0 1:0.3 2:0.1 3:0.45220608 
-0 1 0 0 1:0.3 2:0.1 3:0.50103718 
-0 1 0 0 1:0.3 2:0.1 3:0.4592371 
-0 1 0 0 1:0.3 2:0.1 3:0.49259108 
-0 1 0 0 1:0.3 2:0.1 3:0.46332735 
-0 1 0 0 1:0.3 2:0.1 3:0.50103718 
-0 1 0 0 1:0.3 2:0.1 3:0.46267605 
-0 1 0 0 1:0.3 2:0.1 3:0.50539565 
-0 1 0 0 1:0.3 2:0.1 3:0.45971251 
-0 1 0 0 1:0.3 2:0.1 3:0.48401761 
-0 1 0 0 1:0.3 2:0.1 3:0.50103718 
-0 1 0 0 1:0.3 2:0.1 3:0.49373865 
-0 1 0 0 1:0.3 2:0.1 3:0.50103718 
-0 1 0 0 1:0.3 2:0.1 3:0.50103718 
-0 1 0 0 1:0.3 2:0.1 3:0.50098482 
-0 1 0 0 1:0.3 2:0.1 3:0.49883235 
-0 1 0 0 1:0.3 2:0.1 3:0.4592371 
-0 1 0 0 1:0.3 2:0.1 3:0.45538533 
-0 1 0 0 1:0.3 2:0.1 3:0.45688999 
-0 1 0 0 1:0.3 2:0.1 3:0.4592371 
-0 1 0 0 1:0.3 2:0.1 3:0.4850359 
-0 1 0 0 1:0.3 2:0.1 3:0.48935676 
-0 1 0 0 1:0.3 2:0.1 3:0.46586418 
-0 1 0 0 1:0.3 2:0.1 3:0.50103718 
-0 1 0 0 1:0.3 2:0.1 3:0.4592371 
-0 1 0 0 1:0.3 2:0.1 3:0.4625718 
-0 1 0 0 1:0.3 2:0.1 3:0.50103718 
-0 1 0 0 1:0.3 2:0.1 3:0.49589121 
-0 1 0 0 1:0.3 2:0.1 3:0.45928639 
-0 1 0 0 1:0.3 2:0.1 3:0.45776141 
-0 1 0 0 1:0.3 2:0.1 3:0.45971251 
-0 1 0 0 1:0.3 2:0.1 3:0.45872468 
-0 1 0 0 1:0.3 2:0.1 3:0.50103718 
-0 1 0 0 1:0.3 2:0.1 3:0.47452378 
-0 1 0 0 1:0.3 2:0.1 3:0.50103718 
-0 1 0 0 1:0.3 2:0.1 3:0.49259108 
-0 1 0 0 1:0.3 2:0.1 3:0.45971251 
-0 1 0 0 1:0.3 2:0.1 3:0.50103718 
-0 1 0 0 1:0.3 2:0.1 3:0.50103718 
-0 1 0 0 1:0.3 2:0.1 3:0.46490479 
-0 1 0 0 1:0.3 2:0.1 3:0.4592371 
-0 1 0 0 1:0.3 2:0.1 3:0.47002655 
-0 1 0 0 1:0.3 2:0.1 3:0.4530862 
-0 1 0 0 1:0.3 2:0.1 3:0.49259108 
-0 1 0 0 1:0.3 2:0.1 3:0.50599688 
-1 0 0.9898963141485897 0 1:0.7 2:0.1 3:0.0010578036 
-0 1 0 0 1:0.3 2:0.1 3:0.50809827 
-0 1 0 0 1:0.3 2:0.1 3:0.49080241 
-0 1 0 0 1:0.3 2:0.1 3:0.4592371 
-0 1 0 0 1:0.3 2:0.1 3:0.48429018 
-0 1 0 0 1:0.3 2:0.1 3:0.49593139 
-0 1 0 0 1:0.3 2:0.1 3:0.45230722 
-0 0.5967748570488302 0 0 1:0.3 2:0.1 3:0.45077312 
-0 1 0 0 1:0.3 2:0.1 3:0.48688501 
-0 1 0 0 1:0.3 2:0.1 3:0.50103718 
-0 1 0 0 1:0.3 2:0.1 3:0.49080557 
-0 1 0 0 1:0.3 2:0.1 3:0.46267605 
-0 1 0 0 1:0.3 2:0.1 3:0.46837646 
-0 1 0 0 1:0.3 2:0.1 3:0.4592371 
-0 1 0 0 1:0.3 2:0.1 3:0.45688993 
-0 1 0 0 1:0.3 2:0.1 3:0.5050385 
-0 1 0 0 1:0.3 2:0.1 3:0.45192075 
-0 1 0 0 1:0.3 2:0.1 3:0.50809827 
-1 1 1 1 1:0.3 2:0.1 3:0.51047841 
-0 1 0 0 1:0.3 2:0.1 3:0.45571423 
-0 1 0 0 1:0.3 2:0.1 3:0.49719715 
-0 1 0 0 1:0.3 2:0.1 3:0.49535036 
-0 1 0 0 1:0.3 2:0.1 3:0.48935676 
-0 1 0 0 1:0.3 2:0.1 3:0.45628393 
-0 1 0 0 1:0.3 2:0.1 3:0.50103718 
-0 1 0 0 1:0.3 2:0.1 3:0.4592371 
-0 1 0 0 1:0.3 2:0.1 3:0.50103718 
-0 1 0 0 1:0.3 2:0.1 3:0.4592371 
-0 1 0 0 1:0.3 2:0.1 3:0.45077312 
-0 1 0 0 1:0.3 2:0.1 3:0.50103718 
-0 1 0 0 1:0.3 2:0.1 3:0.45971251 
-0 1 0 0 1:0.3 2:0.1 3:0.47220105 
-0 1 0 0 1:0.3 2:0.1 3:0.50103718 
-1 0 0 0 1:0.3 2:0.1 3:1.7881393e-07 
-1 0 0 0 1:0.3 2:0.1 3:1.7881393e-07 
-1 0 0 0 1:0.3 2:0.1 3:1.7881393e-07 
-1 0 0 0 1:0.3 2:0.1 3:1.7881393e-07 
-1 0 0 0 1:0.3 2:0.1 3:1.7881393e-07 
-1 0 0 0 1:0.3 2:0.1 3:1.7881393e-07 
-1 0 0 0 1:0.3 2:0.1 3:1.7881393e-07 
-0.7855679195208973 0 0 0 1:0.3 2:0.1 3:1.7881393e-07 
-0 -1 0 0 1:0.3 2:0.1 3:0.54112852 
-0 -1 0 0 1:0.3 2:0.1 3:0.51964083 
-0 -1 1 0 1:0.3 2:0.1 3:0.5112749 
-0 -1 0 0 1:0.3 2:0.1 3:0.52853924 
-0 -1 0 0 1:0.3 2:0.1 3:0.52150559 
-0 -1 0 0 1:0.3 2:0.1 3:0.53878555 
-1 -0 0 0 1:0.3 2:0.8 3:0.72718671 
-0 -1 0 0 1:0.3 2:0.1 3:0.52853924 
-0 -1 0 0 1:0.3 2:0.1 3:0.5457347 
-0 -1 0 0 1:0.3 2:0.1 3:0.53198877 
-1 -0 0 0 1:0.3 2:0.8 3:0.712028 
-1 -0 0 0 1:0.3 2:0.5 3:0.58907321 
-0 -1 0 0 1:0.3 2:0.1 3:0.53689343 
-0 -1 0 0 1:0.3 2:0.1 3:0.52853924 
-0 -1 0 0 1:0.3 2:0.1 3:0.53609481 
-0 -1 0 0 1:0.3 2:0.1 3:0.5223918 
-0 -1 0 0 1:0.3 2:0.1 3:0.5483011 
-0 -1 0 0 1:0.3 2:0.1 3:0.51954779 
-1 -0 0 0 1:0.3 2:0.5 3:0.62526667 
-0 -1 0 0 1:0.3 2:0.1 3:0.52647007 
-0 -1 0 0 1:0.3 2:0.1 3:0.51964083 
-0 -1 0 0 1:0.3 2:0.1 3:0.5483011 
-0 -1 0 0 1:0.3 2:0.1 3:0.53923127 
-0 -1 0 0 1:0.3 2:0.1 3:0.55383947 
-0 -1 0 0 1:0.3 2:0.1 3:0.5483011 
-0 -1 0 0 1:0.3 2:0.1 3:0.5619126 
-0 -1 0 0 1:0.3 2:0.1 3:0.52853924 
-1 -0 0 0 1:0.3 2:0.5 3:0.64182332 
-1 -0 0 0 1:0.3 2:0.5 3:0.58907321 
-0 -1 0 0 1:0.3 2:0.1 3:0.52853924 
-0 -1 0 0 1:0.3 2:0.1 3:0.53923127 
-1 -0 0 0 1:0.3 2:0.5 3:0.56176764 
-1 -0 0 0 1:0.3 2:0.5 3:0.63841593 
-1 -0 0 0 1:0.3 2:0.5 3:0.63841593 
-0 -1 0 0 1:0.3 2:0.1 3:0.5423592 
-0 -1 0 0 1:0.3 2:0.1 3:0.53198877 
-0 -1 0 0 1:0.3 2:0.1 3:0.53859031 
-0 -1 0 0 1:0.3 2:0.1 3:0.52853924 
-0 -1 0 0 1:0.3 2:0.1 3:0.52853924 
-1 -0 0 0 1:0.3 2:0.8 3:0.70673984 
-0 -1 0 0 1:0.3 2:0.1 3:0.53923127 
-0 -1 0 0 1:0.3 2:0.1 3:0.55023775 
-1 -0 0 0 1:0.3 2:0.5 3:0.63841593 
-1 -0 1 0 1:0.3 2:1 3:0.85095847 
-0 -1 0 0 1:0.3 2:0.1 3:0.5503054 
-0 -1 0 0 1:0.3 2:0.1 3:0.53767017 
-0 -1 0 0 1:0.3 2:0.1 3:0.5423592 
-1 -0 0 0 1:0.3 2:0.8 3:0.77042644 
-0 -1 0 0 1:0.3 2:0.1 3:0.51591018 
-0 -1 0 0 1:0.3 2:0.1 3:0.55175909 
-0 -1 0 0 1:0.3 2:0.1 3:0.5376842 
-0 -1 0 0 1:0.3 2:0.1 3:0.5483011 
-0 -1 0 0 1:0.3 2:0.1 3:0.55023775 
-0 -1 0 0 1:0.3 2:0.1 3:0.53198877 
-0 -1 0 0 1:0.3 2:0.1 3:0.53191283 
-0 -1 0 0 1:0.3 2:0.1 3:0.51349163 
-0 -1 0 0 1:0.3 2:0.1 3:0.53609481 
-0 -1 0 0 1:0.3 2:0.1 3:0.55023775 
-1 -0 0 0 1:0.3 2:0.8 3:0.7059778 
-0 -1 0 0 1:0.3 2:0.1 3:0.52853924 
-0 -1 0 0 1:0.3 2:0.1 3:0.53592837 
-0 -1 0 0 1:0.3 2:0.1 3:0.52852145 
-0 -1 0 0 1:0.3 2:0.1 3:0.56052777 
-0 -1 0 0 1:0.3 2:0.1 3:0.53198877 
-0 -1 0 0 1:0.3 2:0.1 3:0.53344774 
-0 -1 0 0 1:0.3 2:0.1 3:0.52853924 
-0 -1 0 0 1:0.3 2:0.1 3:0.5457347 
-0 -1 0 0 1:0.3 2:0.1 3:0.51901063 
-1 -0 0 0 1:0.3 2:0.5 3:0.61229584 
-0 -1 0 0 1:0.3 2:0.1 3:0.56176764 
-0 -1 0 0 1:0.3 2:0.1 3:0.55680788 
-1 -0 0 0 1:0.3 2:0.5 3:0.58907321 
-0 -1 0 0 1:0.3 2:0.1 3:0.53304154 
-0 -1 0 0 1:0.3 2:0.1 3:0.55680788 
-0 -1 0 0 1:0.3 2:0.1 3:0.5483011 
-1 -0 0 0 1:0.3 2:0.8 3:0.78757505 
-1 -0 0 0 1:0.3 2:0.5 3:0.63841593 
-1 -0 0 0 1:0.3 2:0.5 3:0.63841593 
-0 -1 0 0 1:0.3 2:0.1 3:0.55023775 
-1 -0 0 0 1:0.3 2:0.8 3:0.76076175 
-0 -1 0 0 1:0.3 2:0.1 3:0.51964083 
-1 -0 0 0 1:0.3 2:0.8 3:0.7676537 
-0 -1 0 0 1:0.3 2:0.1 3:0.5483011 
-0 -1 0 0 1:0.3 2:0.1 3:0.52853924 
-1 -0 0 0 1:0.3 2:0.8 3:0.7344085 
-1 -0 0 0 1:0.3 2:0.8 3:0.72763208 
-1 -0 0 0 1:0.3 2:0.5 3:0.60124758 
-0 -1 0 0 1:0.3 2:0.1 3:0.53270763 
-0 -1 0 0 1:0.3 2:0.1 3:0.52853924 
-0 -1 0 0 1:0.3 2:0.1 3:0.53755701 
-0 -1 0 0 1:0.3 2:0.1 3:0.52853924 
-0 -1 0 0 1:0.3 2:0.1 3:0.53404185 
-0 -1 0 0 1:0.3 2:0.1 3:0.51765651 
-0 -1 0 0 1:0.3 2:0.1 3:0.56176764 
-0 -1 0 0 1:0.3 2:0.1 3:0.53923127 
-0 -1 0 0 1:0.3 2:0.1 3:0.52553666 
-1 -0 0 0 1:0.3 2:0.5 3:0.59167829 
-0 -1 0 0 1:0.3 2:0.1 3:0.55958632 
-0 -1 0 0 1:0.3 2:0.1 3:0.5483011 
-1 -0 0 0 1:0.3 2:0.5 3:0.60124758 
-0 -1 0 0 1:0.3 2:0.1 3:0.56176764 
-0 -1 0 0 1:0.3 2:0.1 3:0.53483614 
-1 -0 0 0 1:0.3 2:0.8 3:0.79445809 
-0 -1 0 0 1:0.3 2:0.1 3:0.56297565 
-0 -1 0 0 1:0.3 2:0.1 3:0.56052777 
-0 -1 0 0 1:0.3 2:0.1 3:0.53923127 
-0 -1 0 0 1:0.3 2:0.1 3:0.5572331 
-0 -0 0.271222837085218 0.7302542104197079 1:0.7 2:0.1 3:0.6279175 
-0 -1 0 0 1:0.3 2:0.1 3:0.52853924 
-0 -1 0 0 1:0.3 2:0.1 3:0.5192374 
-0 -1 0 0 1:0.3 2:0.1 3:0.56176764 
-0 -1 0 0 1:0.3 2:0.1 3:0.5427106 
-0 -1 0 0 1:0.3 2:0.1 3:0.52620617 
-0 -1 0 0 1:0.3 2:0.1 3:0.5483011 
-0 -1 0 0 1:0.3 2:0.1 3:0.53198877 
-0 -1 0 0 1:0.3 2:0.1 3:0.53198877 
-0 -1 0 0 1:0.3 2:0.1 3:0.5483011 
-1 -0 0 0 1:0.3 2:0.8 3:0.80027948 
-0 -1 0 0 1:0.3 2:0.1 3:0.54203665 
-0 -1 0 0 1:0.3 2:0.1 3:0.52100584 
-0 -1 0 0 1:0.3 2:0.1 3:0.55473149 
-0 -1 0 0 1:0.3 2:0.1 3:0.53320971 
-0 -1 0 0 1:0.3 2:0.1 3:0.54039922 
-1 -0 0 0 1:0.3 2:0.5 3:0.60124758 
-1 -0 0 0 1:0.3 2:0.8 3:0.72023129 
-1 -0 0 0 1:0.3 2:0.8 3:0.76786624 
-0 -1 0 0 1:0.3 2:0.1 3:0.53801483 
-0 -1 0 0 1:0.3 2:0.1 3:0.55005234 
-0 -1 0 0 1:0.3 2:0.1 3:0.55680788 
-0 -1 0 0 1:0.3 2:0.1 3:0.53198877 
-0 -1 0 0 1:0.3 2:0.1 3:0.52297017 
-0 -1 0 0 1:0.3 2:0.1 3:0.5427106 
-0 -1 0 0 1:0.3 2:0.1 3:0.56240773 
-0 -1 0 0 1:0.3 2:0.1 3:0.55042636 
-0 -1 0 0 1:0.3 2:0.1 3:0.55680788 
-1 -0 0 0 1:0.3 2:0.5 3:0.56176764 
-0 -1 0 0 1:0.3 2:0.1 3:0.51380226 
-0 -1 0 0 1:0.3 2:0.1 3:0.5572331 
-0 -1 0 0 1:0.3 2:0.1 3:0.52853924 
-0 -1 0 0 1:0.3 2:0.1 3:0.52853924 
-1 -0 0 0 1:0.3 2:0.8 3:0.75675277 
-0 -1 0 0 1:0.3 2:0.1 3:0.5194923 
-1 -0 0 0 1:0.3 2:0.8 3:0.78982006 
-0 -1 0 0 1:0.3 2:0.1 3:0.54615793 
-1 -0 0 0 1:0.3 2:0.8 3:0.75379859 
-0 -1 0 0 1:0.3 2:0.1 3:0.53242385 
-0 -1 0 0 1:0.3 2:0.1 3:0.52853924 
-0 -1 0 0 1:0.3 2:0.1 3:0.56176764 
-0 -1 0 0 1:0.3 2:0.1 3:0.53241467 
-1 -0 0 0 1:0.3 2:0.8 3:0.72857353 
-0 -1 0 0 1:0.3 2:0.1 3:0.53198877 
-1 -0 0 0 1:0.3 2:0.8 3:0.76805595 
-0 -1 0 0 1:0.3 2:0.1 3:0.55138323 
-0 -1 0 0 1:0.3 2:0.1 3:0.52853924 
-0 -1 0 0 1:0.3 2:0.1 3:0.54959744 
-0 -1 0 0 1:0.3 2:0.1 3:0.53088647 
-1 -0 0 0 1:0.3 2:0.5 3:0.60124758 
-1 -0 0 0 1:0.3 2:0.8 3:0.78377664 
-0 -1 0 0 1:0.3 2:0.1 3:0.52853924 
-1 -0 0 0 1:0.3 2:0.5 3:0.56207588 
-0 -1 0 0 1:0.3 2:0.1 3:0.56176764 
-0 -1 0 0 1:0.3 2:0.1 3:0.56207588 
-1 -0 0 0 1:0.3 2:0.5 3:0.60124758 
-1 -0 0 0 1:0.3 2:0.8 3:0.75414068 
-1 -0 0 0 1:0.3 2:0.5 3:0.56039351 
-1 -0 0 0 1:0.3 2:0.8 3:0.72691011 
-0 -1 0 0 1:0.3 2:0.1 3:0.55030468 
-0 -1 0 0 1:0.3 2:0.1 3:0.52853924 
-0 -1 0 0 1:0.3 2:0.1 3:0.53923127 
-0 -1 0 0 1:0.3 2:0.1 3:0.56207588 
-0 -1 0 0 1:0.3 2:0.1 3:0.52853924 
-1 -0 0 0 1:0.3 2:0.5 3:0.63841593 
-1 -0 0 0 1:0.3 2:0.5 3:0.60124758 
-1 -0 0 0 1:0.3 2:0.5 3:0.58827612 
-1 -0 0 0 1:0.3 2:0.5 3:0.61026314 
-0 -1 0 0 1:0.3 2:0.1 3:0.52731964 
-0 -1 0 0 1:0.3 2:0.1 3:0.52853924 
-1 -0 0 0 1:0.3 2:0.8 3:0.76185495 
-0 -1 0 0 1:0.3 2:0.1 3:0.55866843 
-0 -1 0 0 1:0.3 2:0.1 3:0.55415282 
-0 -1 0 0 1:0.3 2:0.1 3:0.5114176 
-0 -1 0 0 1:0.3 2:0.1 3:0.52731964 
-0 -1 0 0 1:0.3 2:0.1 3:0.53331417 
-1 -0 0 0 1:0.3 2:0.8 3:0.71756318 
-0 -1 0 0 1:0.3 2:0.1 3:0.55383947 
-0 -1 0 0 1:0.3 2:0.1 3:0.5431641 
-1 -0 0 0 1:0.3 2:0.8 3:0.73110187 
-1 -0 0 0 1:0.3 2:0.8 3:0.76204464 
-0 -1 0 0 1:0.3 2:0.1 3:0.55680788 
-0 -1 0 0 1:0.3 2:0.1 3:0.53923127 
-0 -1 0 0 1:0.3 2:0.1 3:0.53923127 
-1 -0 0 0 1:0.3 2:0.8 3:0.78950094 
-1 -0 0 0 1:0.3 2:0.5 3:0.56876519 
-0 -1 0 0 1:0.3 2:0.1 3:0.5483011 
-1 -0 0 0 1:0.3 2:0.8 3:0.79972933 
-0 -1 0 0 1:0.3 2:0.1 3:0.56176764 
-0 -1 0 0 1:0.3 2:0.1 3:0.5427106 
-0 -1 0 0 1:0.3 2:0.1 3:0.56176764 
-1 -0 0 0 1:0.3 2:0.5 3:0.60124758 
-0 -1 0 0 1:0.3 2:0.1 3:0.5423592 
-0 -1 0 0 1:0.3 2:0.1 3:0.54708287 
-0 -1 0 0 1:0.3 2:0.1 3:0.5483011 
-0 -1 0 0 1:0.3 2:0.1 3:0.56041762 
-1 -0 0 0 1:0.3 2:0.8 3:0.76131855 
-0 -1 0 0 1:0.3 2:0.1 3:0.5427106 
-0 -1 0 0 1:0.3 2:0.1 3:0.51964083 
-1 -0 0 0 1:0.3 2:0.5 3:0.63841593 
-0 -1 0 0 1:0.3 2:0.1 3:0.51336372 
-1 -0 0 0 1:0.3 2:0.8 3:0.71139702 
-0 -1 0 0 1:0.3 2:0.1 3:0.56138632 
-0 -1 0 0 1:0.3 2:0.1 3:0.5483011 
-0 -1 0 0 1:0.3 2:0.1 3:0.53762579 
-0 -1 0 0 1:0.3 2:0.1 3:0.56176764 
-0 -1 0 0 1:0.3 2:0.1 3:0.51964083 
-0 -1 0 0 1:0.3 2:0.1 3:0.56176764 
-0 -1 0 0 1:0.3 2:0.1 3:0.52163216 
-1 -0 0 0 1:0.3 2:0.5 3:0.634253 
-0 -1 0 0 1:0.3 2:0.1 3:0.54795462 
-0 -1 0 0 1:0.3 2:0.1 3:0.52312395 
-0 -1 0 0 1:0.3 2:0.1 3:0.56176764 
-0 -1 0 0 1:0.3 2:0.1 3:0.52731964 
-0 -1 0 0 1:0.3 2:0.1 3:0.52792397 
-0 -1 0 0 1:0.3 2:0.1 3:0.52853924 
-1 -0 0 0 1:0.3 2:0.8 3:0.71305922 
-1 -0 0 0 1:0.3 2:0.5 3:0.56010523 
-0 -1 0 0 1:0.3 2:0.1 3:0.56164494 
-0 -1 0 0 1:0.3 2:0.1 3:0.56164494 
-1 -0 0 0 1:0.3 2:0.5 3:0.57552636 
-0 -1 0 0 1:0.3 2:0.1 3:0.5483011 
-0 -1 0 0 1:0.3 2:0.1 3:0.51382139 
-0 -1 0 0 1:0.3 2:0.1 3:0.56176764 
-0 -1 0 0 1:0.3 2:0.1 3:0.55680788 
-1 -0 0 0 1:0.3 2:0.5 3:0.60613552 
-0 -1 0 0 1:0.3 2:0.1 3:0.53739527 
-0 -1 0 0 1:0.3 2:0.1 3:0.54623541 
-0 -1 0 0 1:0.3 2:0.1 3:0.55680788 
-0 -1 0 0 1:0.3 2:0.1 3:0.53923127 
-0 -1 0 0 1:0.3 2:0.1 3:0.5483011 
-0 -1 0 0 1:0.3 2:0.1 3:0.51648846 
-1 -0 0 0 1:0.3 2:0.5 3:0.63663828 
-0 -1 0 0 1:0.3 2:0.1 3:0.52853924 
-1 -0 0 0 1:0.3 2:0.8 3:0.77733877 
-1 -0 0 0 1:0.3 2:0.8 3:0.75772507 
-0 -1 0 0 1:0.3 2:0.1 3:0.52853924 
-0 -1 0 0 1:0.3 2:0.1 3:0.55573207 
-0 -1 0 0 1:0.3 2:0.1 3:0.53297845 
-1 -0 0 0 1:0.3 2:0.8 3:0.70987532 
-1 -0 0 0 1:0.3 2:0.5 3:0.63725916 
-0 -1 0 0 1:0.3 2:0.1 3:0.52853924 
-1 -0 0 0 1:0.3 2:0.8 3:0.71327499 
-0 -1 0 0 1:0.3 2:0.1 3:0.5423592 
-0 -1 0 0 1:0.3 2:0.1 3:0.52659231 
-0 -1 0 0 1:0.3 2:0.1 3:0.5292263 
-1 -0 0 0 1:0.3 2:0.8 3:0.7524363 
-1 -0 0 0 1:0.3 2:0.8 3:0.79445809 
-0 -1 0 0 1:0.3 2:0.1 3:0.52853924 
-1 -0 0 0 1:0.3 2:0.5 3:0.63841593 
-0 -1 0 0 1:0.3 2:0.1 3:0.53609481 
-0 -1 0 0 1:0.3 2:0.1 3:0.55214328 
-1 -0 0 0 1:0.3 2:0.8 3:0.75772507 
-0 -1 0 0 1:0.3 2:0.1 3:0.54173502 
-1 -0 0 0 1:0.3 2:0.5 3:0.60124758 
-0 -1 0 0 1:0.3 2:0.1 3:0.52370125 
-0 -1 0 0 1:0.3 2:0.1 3:0.53923127 
-0 -1 0 0 1:0.3 2:0.1 3:0.52853924 
-1 -0 0 0 1:0.3 2:0.8 3:0.76942456 
-0 -1 0 0 1:0.3 2:0.1 3:0.55065525 
-0 -1 0 0 1:0.3 2:0.1 3:0.53198877 
-1 -1 0 0 1:0.3 2:0.5 3:0.55680788 
-0 -1 0 0 1:0.3 2:0.1 3:0.53628942 
-0 -1 0 0 1:0.3 2:0.1 3:0.55680788 
-0 -1 0 0 1:0.3 2:0.1 3:0.52731964 
-0 -1 0 0 1:0.3 2:0.1 3:0.55986792 
-1 -0 0 0 1:0.3 2:0.5 3:0.56242356 
-1 -0 0 0 1:0.3 2:0.5 3:0.63199434 
-0 -1 0 0 1:0.3 2:0.1 3:0.56176764 
-1 -0 0 0 1:0.3 2:0.8 3:0.71327499 
-0 -1 0 0 1:0.3 2:0.1 3:0.55296117 
-1 -0 0 0 1:0.3 2:0.5 3:0.60124758 
-1 -0 0 0 1:0.3 2:0.5 3:0.62815213 
-0 -1 0 0 1:0.3 2:0.1 3:0.5483011 
-0 -1 0 0 1:0.3 2:0.1 3:0.56353411 
-1 -0 0 0 1:0.3 2:0.5 3:0.56207588 
-0 -1 0 0 1:0.3 2:0.1 3:0.53198877 
-0 -1 0 0 1:0.3 2:0.1 3:0.53573331 
-0 -1 0 0 1:0.3 2:0.1 3:0.55383947 
-0 -1 0 0 1:0.3 2:0.1 3:0.51541653 
-1 -0 0 0 1:0.3 2:0.8 3:0.71387869 
-0 -1 0 0 1:0.3 2:0.1 3:0.54558009 
-0 -1 0 0 1:0.3 2:0.1 3:0.53923127 
-1 -0 0 0 1:0.3 2:0.8 3:0.75414068 
-1 -0 0 0 1:0.3 2:0.5 3:0.63841593 
-1 -0 0 0 1:0.3 2:0.5 3:0.59649771 
-0 -1 0 0 1:0.3 2:0.1 3:0.56176764 
-0 -1 0 0 1:0.3 2:0.1 3:0.51679423 
-1 -0 0 0 1:0.3 2:0.8 3:0.70673984 
-0 -1 0 0 1:0.3 2:0.1 3:0.53428382 
-0 -1 0 0 1:0.3 2:0.1 3:0.52731964 
-1 -0 0 0 1:0.3 2:0.5 3:0.60124758 
-1 -0 0 0 1:0.3 2:0.8 3:0.72025251 
-0 -1 0 0 1:0.3 2:0.1 3:0.55761436 
-0 -1 0 0 1:0.3 2:0.1 3:0.56176764 
-1 -0 0 0 1:0.3 2:0.8 3:0.72664312 
-0 -1 0 0 1:0.3 2:0.1 3:0.51528141 
-0 -1 0 0 1:0.3 2:0.1 3:0.5427106 
-1 -0 0 0 1:0.3 2:0.5 3:0.62535816 
-0 -1 0 0 1:0.3 2:0.1 3:0.53198877 
-0 -1 0 0 1:0.3 2:0.1 3:0.52853924 
-0 -1 0 0 1:0.3 2:0.1 3:0.5483011 
-0 -1 0 0 1:0.3 2:0.1 3:0.56176764 
-1 -0 0 0 1:0.3 2:0.8 3:0.79865956 
-0 -1 0 0 1:0.3 2:0.1 3:0.52928427 
-0 -1 0 0 1:0.3 2:0.1 3:0.51969805 
-0 -1 0 0 1:0.3 2:0.1 3:0.55383947 
-1 -0 0 0 1:0.3 2:0.8 3:0.75145108 
-0 -1 0 0 1:0.3 2:0.1 3:0.5278632 
-1 -0 0 0 1:0.3 2:0.8 3:0.7344085 
-0 -1 0 0 1:0.3 2:0.1 3:0.53519744 
-0 -1 0 0 1:0.3 2:0.1 3:0.5331215 
-0 -1 0 0 1:0.3 2:0.1 3:0.52853924 
-0 -1 0 0 1:0.3 2:0.1 3:0.55680788 
-0 -1 0 0 1:0.3 2:0.1 3:0.52853924 
-0 -1 0 0 1:0.3 2:0.1 3:0.53923127 
-0 -1 0 0 1:0.3 2:0.1 3:0.5427106 
-1 -0 0 0 1:0.3 2:0.8 3:0.72903228 
-0 -1 0 0 1:0.3 2:0.1 3:0.56176764 
-0 -1 0 0 1:0.3 2:0.1 3:0.5483011 
-0 -1 0 0 1:0.3 2:0.1 3:0.52853924 
-0 -1 0 0 1:0.3 2:0.1 3:0.55383947 
-0 -1 0 0 1:0.3 2:0.1 3:0.54044527 
-0 -1 0 0 1:0.3 2:0.1 3:0.5423592 
-0 -1 0 0 1:0.3 2:0.1 3:0.55590191 
-0 -1 0 0 1:0.3 2:0.1 3:0.54965594 
-0 -1 0 0 1:0.3 2:0.1 3:0.56176764 
-0 -1 0 0 1:0.3 2:0.1 3:0.56176764 
-0 -1 0 0 1:0.3 2:0.1 3:0.54062504 
-1 -0 0 0 1:0.3 2:0.5 3:0.56704432 
-0 -1 0 0 1:0.3 2:0.1 3:0.54182234 
-1 -0 0 0 1:0.3 2:1 3:0.87336092 
-0 -1 0 0 1:0.3 2:0.1 3:0.5427106 
-0 -1 0 0 1:0.3 2:0.1 3:0.55680788 
-1 -0 0 0 1:0.3 2:0.5 3:0.60124758 
-0 -1 0 0 1:0.3 2:0.1 3:0.52853924 
-0 -1 0 0 1:0.3 2:0.1 3:0.52853924 
-0 -1 0 0 1:0.3 2:0.1 3:0.52853924 
-0 -1 0 0 1:0.3 2:0.1 3:0.51906535 
-1 -0 0 0 1:0.3 2:0.8 3:0.76647498 
-1 -0 0 0 1:0.3 2:0.8 3:0.72428378 
-0 -1 0 0 1:0.3 2:0.1 3:0.54216331 
-1 -0 0 0 1:0.3 2:0.5 3:0.56207588 
-1 -0 0 0 1:0.3 2:0.5 3:0.60124758 
-0 -1 0 0 1:0.3 2:0.1 3:0.52853924 
-1 -0 0 0 1:0.3 2:0.8 3:0.7793095 
-1 -0 0 0 1:0.3 2:0.8 3:0.75755325 
-1 -0 0 0 1:0.3 2:0.5 3:0.6214247 
-0 -1 0 0 1:0.3 2:0.1 3:0.55566692 
-1 -0 0 0 1:0.3 2:0.8 3:0.79776414 
-0 -1 0 0 1:0.3 2:0.1 3:0.54696837 
-0 -1 0 0 1:0.3 2:0.1 3:0.51477763 
-0 -1 0 0 1:0.3 2:0.1 3:0.5483011 
-1 -0 0 0 1:0.3 2:0.8 3:0.76620644 
-0 -1 0 0 1:0.3 2:0.1 3:0.54541183 
-1 -0 0 0 1:0.3 2:0.8 3:0.72664312 
-0 -1 0 0 1:0.3 2:0.1 3:0.52853924 
-0 -1 0 0 1:0.3 2:0.1 3:0.53923127 
-0 -1 0 0 1:0.3 2:0.1 3:0.52613741 
-0 -1 0 0 1:0.3 2:0.1 3:0.5611406 
-0 -1 0 0 1:0.3 2:0.1 3:0.52853924 
-0 -1 0 0 1:0.3 2:0.1 3:0.5345884 
-1 -0 0 0 1:0.3 2:0.5 3:0.60124758 
-1 -0 0 0 1:0.3 2:0.5 3:0.61590114 
-0 -1 0 0 1:0.3 2:0.1 3:0.53609481 
-0 -1 0 0 1:0.3 2:0.1 3:0.51717496 
-0 -0 0 0.1385908324828395 1:0.05 2:0.1 3:0.99999986 
-0 -1 0 0 1:0.3 2:0.1 3:0.54910475 
-0 -1 0 0 1:0.3 2:0.1 3:0.55680788 
-1 -0 0 0 1:0.3 2:0.5 3:0.60124758 
-1 -0 0 0 1:0.3 2:0.5 3:0.62904441 
-0 -1 0 0 1:0.3 2:0.1 3:0.52479431 
-1 -0 0 0 1:0.3 2:0.8 3:0.78984666 
-1 -0 0 0 1:0.3 2:0.8 3:0.73456568 
-0 -1 0 0 1:0.3 2:0.1 3:0.55680788 
-0 -1 0 0 1:0.3 2:0.1 3:0.562931 
-0 -1 0 0 1:0.3 2:0.1 3:0.5292263 
-0 -1 0 0 1:0.3 2:0.1 3:0.5423592 
-0 -1 0 0 1:0.3 2:0.1 3:0.52853924 
-1 -0 0 0 1:0.3 2:0.8 3:0.72066951 
-0 -1 0 0 1:0.3 2:0.1 3:0.52853924 
-1 -0 0 0 1:0.3 2:0.8 3:0.80027948 
-0 -1 0 0 1:0.3 2:0.1 3:0.53881857 
-1 -0 0 0 1:0.3 2:0.8 3:0.74453056 
-1 -0 0 0 1:0.3 2:0.8 3:0.79325598 
-0 -1 0 0 1:0.3 2:0.1 3:0.52060819 
-0 -1 0 0 1:0.3 2:0.1 3:0.55680788 
-0 -1 0 0 1:0.3 2:0.1 3:0.51908046 
-0 -1 0 0 1:0.3 2:0.1 3:0.53778824 
-0 -1 0 0 1:0.3 2:0.1 3:0.55023775 
-0 -1 0 0 1:0.3 2:0.1 3:0.52853924 
-1 -0 0 0 1:0.3 2:0.8 3:0.79497951 
-1 -0 0 0 1:0.3 2:0.5 3:0.63841593 
-1 -0 0 0 1:0.3 2:0.5 3:0.6214247 
-0 -1 0 0 1:0.3 2:0.1 3:0.5572331 
-1 -0 0 0 1:0.3 2:0.5 3:0.63841593 
-0 -1 0 0 1:0.3 2:0.1 3:0.53868556 
-0 -1 0 0 1:0.3 2:0.1 3:0.5423592 
-0 -1 0 0 1:0.3 2:0.1 3:0.5483011 
-0 -1 0 0 1:0.3 2:0.1 3:0.53646529 
-0 -1 0 0 1:0.3 2:0.1 3:0.562931 
-0 -1 0 0 1:0.3 2:0.1 3:0.52853924 
-0 -1 0 0 1:0.3 2:0.1 3:0.55071971 
-1 -0 0 0 1:0.3 2:0.8 3:0.79715644 
-0 -1 0 0 1:0.3 2:0.1 3:0.56176764 
-1 -0 0 0 1:0.3 2:0.5 3:0.63813731 
-0 -1 0 0 1:0.3 2:0.1 3:0.55167395 
-0 -1 0 0 1:0.3 2:0.1 3:0.52490035 
-0 -1 0 0 1:0.3 2:0.1 3:0.5423592 
-1 -0 0 0 1:0.3 2:0.5 3:0.62279648 
-0 -1 0 0 1:0.3 2:0.1 3:0.52871686 
-1 -0 0 0 1:0.3 2:0.5 3:0.59788746 
-0 -1 0 0 1:0.3 2:0.1 3:0.5339061 
-0 -1 0 0 1:0.3 2:0.1 3:0.5483011 
-0 -1 0 0 1:0.3 2:0.1 3:0.53198877 
-0.3684235890359076 -0 0 0 1:0.3 2:0.8 3:0.80027948 
-1 -0 0 0 1:0.3 2:0.5 3:0.60556602 
-0 -1 0 0 1:0.3 2:0.1 3:0.5427106 
-0 -1 0 0 1:0.3 2:0.1 3:0.55680788 
-1 -0 0 0 1:0.3 2:0.5 3:0.6214247 
-0 -1 0 0 1:0.3 2:0.1 3:0.5483011 
-0 -1 0 0 1:0.3 2:0.1 3:0.52853924 
-0 -1 0 0 1:0.3 2:0.1 3:0.51518303 
-1 -0 0 0 1:0.3 2:0.5 3:0.58993372 
-0 -1 0 0 1:0.3 2:0.1 3:0.53005138 
-0 -1 0 0 1:0.3 2:0.1 3:0.52853924 
-1 -0 0 0 1:0.3 2:0.8 3:0.79704724 
-0 -1 0 0 1:0.3 2:0.1 3:0.5483011 
-0 -1 0 0 1:0.3 2:0.1 3:0.53198877 
-0 -1 0 0 1:0.3 2:0.1 3:0.56070566 
-1 -0 0 0 1:0.3 2:0.8 3:0.7451022 
-1 -0 0 0 1:0.3 2:0.8 3:0.77648951 
-1 -0 0 0 1:0.3 2:0.5 3:0.60124758 
-0 -1 0 0 1:0.3 2:0.1 3:0.52853924 
-0 -1 0 0 1:0.3 2:0.1 3:0.55883524 
-0 -1 0 0 1:0.3 2:0.1 3:0.56176764 
-1 -0 0 0 1:0.3 2:0.8 3:0.76860088 
-1 -0 0 0 1:0.3 2:0.5 3:0.57447249 
-1 -0 0 0 1:0.3 2:0.5 3:0.61323655 
-1 -0 0 0 1:0.3 2:0.8 3:0.70756087 
-0 -1 0 0 1:0.3 2:0.1 3:0.56207588 
-0 -1 0 0 1:0.3 2:0.1 3:0.53198877 
-0 -1 0 0 1:0.3 2:0.1 3:0.55738688 
-0 -1 0 0 1:0.3 2:0.1 3:0.56070566 
-0 -1 0 0 1:0.3 2:0.1 3:0.55611333 
-0 -1 0 0 1:0.3 2:0.1 3:0.54074785 
-0.5793874263767431 -0 0 0 1:0.3 2:0.5 3:0.64468527 
-0 -1 0 0 1:0.3 2:0.1 3:0.5427106 
-0 -1 0 0 1:0.3 2:0.1 3:0.53198877 
-1 -0 0 0 1:0.3 2:0.5 3:0.60065714 
-0 -1 0 0 1:0.3 2:0.1 3:0.53144285 
-0 -1 0 0 1:0.3 2:0.1 3:0.55448619 
-0 -1 0 0 1:0.3 2:0.1 3:0.55680788 
-1 -0 0 0 1:0.3 2:0.5 3:0.58321872 
-0 -1 0 0 1:0.3 2:0.1 3:0.52616316 
-0 -1 0 0 1:0.3 2:0.1 3:0.52853924 
-0 -1 0 0 1:0.3 2:0.1 3:0.55023775 
-1 -0 0 0 1:0.3 2:0.8 3:0.79145248 
-1 -0 0 0 1:0.3 2:0.5 3:0.62078544 
-1 -0 0 0 1:0.3 2:0.8 3:0.76974389 
-0 -1 0 0 1:0.3 2:0.1 3:0.52853924 
-0 -1 0 0 1:0.3 2:0.1 3:0.56217471 
-0 -1 0 0 1:0.3 2:0.1 3:0.55005234 
-0 -1 0 0 1:0.3 2:0.1 3:0.51964083 
-0 -1 0 0 1:0.3 2:0.1 3:0.52853924 
-0 -1 0 0 1:0.3 2:0.1 3:0.55680788 
-0 -1 0 0 1:0.3 2:0.1 3:0.5587191 
-0 -1 0 0 1:0.3 2:0.1 3:0.51223466 
-0 -1 0 0 1:0.3 2:0.1 3:0.55745763 
-0 -1 0 0 1:0.3 2:0.1 3:0.5423592 
-0 -1 0 0 1:0.3 2:0.1 3:0.5423592 
-1 -0 0 0 1:0.3 2:0.8 3:0.712028 
-0 -1 0 0 1:0.3 2:0.1 3:0.52847627 
-0 -1 0 0 1:0.3 2:0.1 3:0.51463625 
-1 -0 0 0 1:0.3 2:0.5 3:0.61461249 
-0 -1 0 0 1:0.3 2:0.1 3:0.52853924 
-0 -1 0 0 1:0.3 2:0.1 3:0.55680788 
-0 -1 0 0 1:0.3 2:0.1 3:0.53518546 
-0 -1 0 0 1:0.3 2:0.1 3:0.55657214 
-0 -1 0 0 1:0.3 2:0.1 3:0.51749712 
-0 -1 0 0 1:0.3 2:0.1 3:0.53923127 
-1 -0 0 0 1:0.3 2:0.5 3:0.61785853 
-1 -0 0 0 1:0.3 2:0.8 3:0.7676208 
-0 -1 0 0 1:0.3 2:0.1 3:0.54233047 
-0 -1 0 0 1:0.3 2:0.1 3:0.52853924 
-0 -1 0 0 1:0.3 2:0.1 3:0.5423592 
-1 -0 0 0 1:0.3 2:0.8 3:0.7375955 
-0 -1 0 0 1:0.3 2:0.1 3:0.5483011 
-0 -1 0 0 1:0.3 2:0.1 3:0.5427106 
-0 -1 0 0 1:0.3 2:0.1 3:0.52853924 
-0 -1 0 0 1:0.3 2:0.1 3:0.56207588 
-0 -1 0 0 1:0.3 2:0.1 3:0.5483011 
-0 -1 0 0 1:0.3 2:0.1 3:0.52853924 
-0 -1 0 0 1:0.3 2:0.1 3:0.53270763 
-1 -0 0 0 1:0.3 2:0.8 3:0.74854672 
-0 -1 0 0 1:0.3 2:0.1 3:0.53923127 
-1 -0 0 0 1:0.3 2:0.5 3:0.59096873 
-0 -1 0 0 1:0.3 2:0.1 3:0.55462256 
-0 -1 0 0 1:0.3 2:0.1 3:0.54795757 
-1 -0 0 0 1:0.3 2:0.5 3:0.60124758 
-0 -1 0 0 1:0.3 2:0.1 3:0.51934451 
-1 -0 0 0 1:0.3 2:0.5 3:0.60124758 
-0 -1 0 0 1:0.3 2:0.1 3:0.53923127 
-1 -0 0 0 1:0.3 2:0.5 3:0.59401023 
-1 -0 0 0 1:0.3 2:0.8 3:0.79072431 
-0 -1 0 0 1:0.3 2:0.1 3:0.55680788 
-0 -1 0 0 1:0.3 2:0.1 3:0.55680788 
-0 -1 0 0 1:0.3 2:0.1 3:0.5218513 
-0 -1 0 0 1:0.3 2:0.1 3:0.54636934 
-0 -1 0 0 1:0.3 2:0.1 3:0.55507511 
-0 -1 0 0 1:0.3 2:0.1 3:0.55128202 
-0 -1 0 0 1:0.3 2:0.1 3:0.51908046 
-1 -0 0 0 1:0.3 2:0.5 3:0.61382464 
-0 -1 0 0 1:0.3 2:0.1 3:0.53198877 
-0 -1 0 0 1:0.3 2:0.1 3:0.52853924 
-0 -1 0 0 1:0.3 2:0.1 3:0.53198877 
-1 -0 0 0 1:0.3 2:0.8 3:0.7524363 
-1 -0 0 0 1:0.3 2:0.5 3:0.63841593 
-0 -1 0 0 1:0.3 2:0.1 3:0.52853924 
-0 -1 0 0 1:0.3 2:0.1 3:0.53638792 
-1 -0 0 0 1:0.3 2:0.5 3:0.57447249 
-0 -1 0 0 1:0.3 2:0.1 3:0.56176764 
-0 -1 0 0 1:0.3 2:0.1 3:0.55383947 
-0 -1 0 0 1:0.3 2:0.1 3:0.55947286 
-1 -0 0 0 1:0.3 2:0.8 3:0.79641058 
-0 -1 0 0 1:0.3 2:0.1 3:0.5483011 
-1 -0 0 0 1:0.3 2:0.5 3:0.63841593 
-0 -1 0 0 1:0.3 2:0.1 3:0.55484274 
-0 -1 0 0 1:0.3 2:0.1 3:0.53198877 
-0 -1 0 0 1:0.3 2:0.1 3:0.53270763 
-0 -1 0 0 1:0.3 2:0.1 3:0.51283166 
-0 -1 0 0 1:0.3 2:0.1 3:0.54615793 
-0 -1 0 0 1:0.3 2:0.1 3:0.51833338 
-1 -0 0 0 1:0.3 2:0.5 3:0.64468527 
-0 -1 0 0 1:0.3 2:0.1 3:0.56054446 
-0 -1 0 0 1:0.3 2:0.1 3:0.55514029 
-1 -0 0 0 1:0.3 2:0.8 3:0.74511805 
-1 -0 0 0 1:0.3 2:0.8 3:0.7451022 
-1 -0 0 0 1:0.3 2:0.5 3:0.60460213 
-1 -0 0 0 1:0.3 2:0.5 3:0.59405479 
-1 -0 0 0 1:0.3 2:0.8 3:0.75484645 
-0 -1 0 0 1:0.3 2:0.1 3:0.53679028 
-0 -1 0 0 1:0.3 2:0.1 3:0.53548205 
-1 -0 0 0 1:0.3 2:0.5 3:0.57447249 
-0 -1 0 0 1:0.3 2:0.1 3:0.5423592 
-0 -1 0 0 1:0.3 2:0.1 3:0.5314177 
-0 -1 0 0 1:0.3 2:0.1 3:0.5457347 
-0 -1 0 0 1:0.3 2:0.1 3:0.53198877 
-0 -1 0 0 1:0.3 2:0.1 3:0.52151373 
-1 -0 0 0 1:0.3 2:0.5 3:0.6214247 
-0 -1 0 0 1:0.3 2:0.1 3:0.52620485 
-0 -1 0 0 1:0.3 2:0.1 3:0.52369303 
-0 -1 0 0 1:0.3 2:0.1 3:0.5483011 
-0 -1 0 0 1:0.3 2:0.1 3:0.52731964 
-1 -0 0 0 1:0.3 2:0.5 3:0.5752936 
-1 -0 0 0 1:0.3 2:0.5 3:0.62107807 
-0 -1 0 0 1:0.3 2:0.1 3:0.52245557 
-1 -0 0 0 1:0.3 2:0.8 3:0.712028 
-0 -1 0 0 1:0.3 2:0.1 3:0.52853924 
-1 -0 0 0 1:0.3 2:0.5 3:0.63841593 
-0 -1 0 0 1:0.3 2:0.1 3:0.52502027 
-0 -1 0 0 1:0.3 2:0.1 3:0.53408897 
-0 -1 0 0 1:0.3 2:0.1 3:0.53198877 
-1 -0 0 0 1:0.3 2:0.5 3:0.6026592 
-0 -1 0 0 1:0.3 2:0.1 3:0.56312832 
-0 -1 0 0 1:0.3 2:0.1 3:0.51457694 
-0 -1 0 0 1:0.3 2:0.1 3:0.52853924 
-0 -1 0 0 1:0.3 2:0.1 3:0.5457347 
-0 -1 0 0 1:0.3 2:0.1 3:0.53344774 
-0 -1 0 0 1:0.3 2:0.1 3:0.5483011 
-0 -1 0 0 1:0.3 2:0.1 3:0.56351507 
-0 -1 0 0 1:0.3 2:0.1 3:0.56406984 
-1 -0 0 0 1:0.3 2:0.8 3:0.73798555 
-0 -1 0 0 1:0.3 2:0.1 3:0.56176764 
-0 -1 0 0 1:0.3 2:0.1 3:0.54144055 
-0 -1 0 0 1:0.3 2:0.1 3:0.56176764 
-1 -0 0 0 1:0.3 2:0.8 3:0.78436461 
-1 -0 0 0 1:0.3 2:0.5 3:0.60124758 
-0 -1 0 0 1:0.3 2:0.1 3:0.55680788 
-1 -0 0 0 1:0.3 2:0.8 3:0.75242241 
-0 -1 0 0 1:0.3 2:0.1 3:0.51837498 
-0 -1 0 0 1:0.3 2:0.1 3:0.54134607 
-1 -0 0 0 1:0.3 2:0.5 3:0.62713748 
-1 -0 0 0 1:0.3 2:0.8 3:0.78779048 
-0 -1 0 0 1:0.3 2:0.1 3:0.51608485 
-0 -1 0 0 1:0.3 2:0.1 3:0.52853924 
-0 -1 0 0 1:0.3 2:0.1 3:0.52853924 
-0 -1 0 0 1:0.3 2:0.1 3:0.55035073 
-0 -1 0 0 1:0.3 2:0.1 3:0.55680788 
-0 -1 0 0 1:0.3 2:0.1 3:0.51336372 
-0 -1 0 0 1:0.3 2:0.1 3:0.5483011 
-1 -0 0 0 1:0.3 2:0.5 3:0.56940022 
-0 -1 0 0 1:0.3 2:0.1 3:0.5427106 
-1 -0 0 0 1:0.3 2:0.5 3:0.60184073 
-1 -0 0 0 1:0.3 2:0.5 3:0.63705775 
-0 -1 0 0 1:0.3 2:0.1 3:0.55232731 
-1 -0 0 0 1:0.3 2:0.5 3:0.60124758 
-0 -1 0 0 1:0.3 2:0.1 3:0.51778463 
-0 -1 0 0 1:0.3 2:0.1 3:0.52853924 
-1 -0 0 0 1:0.3 2:0.5 3:0.58321872 
-0 -1 0 0 1:0.3 2:0.1 3:0.5423592 
-0 -1 0 0 1:0.3 2:0.1 3:0.51259264 
-0 -1 0 0 1:0.3 2:0.1 3:0.53198877 
-0 -1 0 0 1:0.3 2:0.1 3:0.53193614 
-1 -0 0 0 1:0.3 2:0.8 3:0.76546605 
-0 -1 0 0 1:0.3 2:0.1 3:0.55309525 
-0 -1 0 0 1:0.3 2:0.1 3:0.53395215 
-0 -1 0 0 1:0.3 2:0.1 3:0.53542855 
-0 -1 0 0 1:0.3 2:0.1 3:0.53918397 
-0 -1 0 0 1:0.3 2:0.1 3:0.52853924 
-1 -0 0 0 1:0.3 2:0.5 3:0.57572564 
-0 -1 0 0 1:0.3 2:0.1 3:0.55014697 
-0 -1 0 0 1:0.3 2:0.1 3:0.5623104 
-1 -0 0 0 1:0.3 2:0.5 3:0.57623163 
-1 -0 0 0 1:0.3 2:0.5 3:0.57100451 
-0 -1 0 0 1:0.3 2:0.1 3:0.55669558 
-0 -1 0 0 1:0.3 2:0.1 3:0.53923127 
-0 -1 0 0 1:0.3 2:0.1 3:0.5483011 
-0 -1 0 0 1:0.3 2:0.1 3:0.52853924 
-0 -1 0 0 1:0.3 2:0.1 3:0.52621892 
-1 -0 0 0 1:0.3 2:0.5 3:0.63841593 
-0 -1 0 0 1:0.3 2:0.1 3:0.55501127 
-0 -1 0 0 1:0.3 2:0.1 3:0.55680788 
-1 -0 0 0 1:0.3 2:0.5 3:0.59618944 
-1 -0 0 0 1:0.3 2:0.5 3:0.64000615 
-0 -1 0 0 1:0.3 2:0.1 3:0.5483011 
-1 -0 0 0 1:0.3 2:0.5 3:0.60346028 
-1 -0 0 0 1:0.3 2:0.5 3:0.61224747 
-1 -0 0 0 1:0.3 2:0.8 3:0.73790264 
-1 -0 0 0 1:0.3 2:0.8 3:0.73905051 
-1 -0 0 0 1:0.3 2:0.8 3:0.71416953 
-0 -1 0 0 1:0.3 2:0.1 3:0.52470005 
-0 -1 0 0 1:0.3 2:0.1 3:0.51892313 
-1 -0 0 0 1:0.3 2:0.8 3:0.75081405 
-0 -1 0 0 1:0.3 2:0.1 3:0.53923127 
-0 -1 0 0 1:0.3 2:0.1 3:0.55680788 
-1 -0 0 0 1:0.3 2:0.5 3:0.60218519 
-1 -0 0 0 1:0.3 2:0.5 3:0.60124758 
-1 -0 0 0 1:0.3 2:0.5 3:0.64468527 
-1 -0 0 0 1:0.3 2:0.8 3:0.71642914 
-1 -0 0 0 1:0.3 2:0.8 3:0.71117646 
-0 -1 0 0 1:0.3 2:0.1 3:0.55680788 
-0 -1 0 0 1:0.3 2:0.1 3:0.52853924 
-1 -0 0 0 1:0.3 2:0.5 3:0.57447249 
-0 -1 0 0 1:0.3 2:0.1 3:0.56176764 
-1 -0 0 0 1:0.3 2:0.8 3:0.75911464 
-1 -0 0 0 1:0.3 2:0.5 3:0.60124758 
-1 -0 0 0 1:0.3 2:0.8 3:0.80015728 
-0 -1 0 0 1:0.3 2:0.1 3:0.51457694 
-0 -1 0 0 1:0.3 2:0.1 3:0.53198877 
-0 -1 0 0 1:0.3 2:0.1 3:0.53609481 
-0 -1 0 0 1:0.3 2:0.1 3:0.53609481 
-0 -1 0 0 1:0.3 2:0.1 3:0.55138323 
-0 -1 0 0 1:0.3 2:0.1 3:0.53198877 
-0 -1 0 0 1:0.3 2:0.1 3:0.55383947 
-0 -1 0 0 1:0.3 2:0.1 3:0.5483011 
-0 -1 0 0 1:0.3 2:0.1 3:0.53270763 
-0 -1 0 0 1:0.3 2:0.1 3:0.51964083 
-0 -1 0 0 1:0.3 2:0.1 3:0.56176764 
-0 -1 0 0 1:0.3 2:0.1 3:0.54074785 
-0 -1 0 0 1:0.3 2:0.1 3:0.56176764 
-0 -1 0 0 1:0.3 2:0.1 3:0.55520463 
-0 -1 0 0 1:0.3 2:0.1 3:0.51964083 
-0 -1 0 0 1:0.3 2:0.1 3:0.54099187 
-0 -1 0 0 1:0.3 2:0.1 3:0.55947286 
-1 -0 0 0 1:0.3 2:0.5 3:0.57106671 
-0 -1 0 0 1:0.3 2:0.1 3:0.51717496 
-0 -1 0 0 1:0.3 2:0.1 3:0.53949007 
-0 -1 0 0 1:0.3 2:0.1 3:0.55680788 
-0 -1 0 0 1:0.3 2:0.1 3:0.55506566 
-0 -1 0 0 1:0.3 2:0.1 3:0.53198877 
-1 -0 0 0 1:0.3 2:0.5 3:0.56010523 
-1 -0 0 0 1:0.3 2:0.5 3:0.64468527 
-0 -1 0 0 1:0.3 2:0.1 3:0.56176764 
-1 -0 0 0 1:0.3 2:0.8 3:0.71849692 
-1 -0 0 0 1:0.3 2:0.5 3:0.56312859 
-1 -0 0 0 1:0.3 2:0.5 3:0.60794681 
-0 -1 0 0 1:0.3 2:0.1 3:0.56207588 
-0 -1 0 0 1:0.3 2:0.1 3:0.53198877 
-0 -1 0 0 1:0.3 2:0.1 3:0.55342346 
-0 -1 0 0 1:0.3 2:0.1 3:0.52792397 
-0 -1 0 0 1:0.3 2:0.1 3:0.52853924 
-0 -0 0 0.6258685994014943 1:0.7 2:1 3:1 
-0 -1 0 0 1:0.3 2:0.1 3:0.56176764 
-0 -1 0 0 1:0.3 2:0.1 3:0.56176764 
-1 -0 0 0 1:0.3 2:0.5 3:0.60207918 
-0 -1 0 0 1:0.3 2:0.1 3:0.53224009 
-1 -0 0 0 1:0.3 2:0.5 3:0.64468527 
-0 -1 0 0 1:0.3 2:0.1 3:0.53578961 
-0 -1 0 0 1:0.3 2:0.1 3:0.5483011 
-1 -0 0 0 1:0.3 2:0.8 3:0.79224117 
-0 -1 0 0 1:0.3 2:0.1 3:0.5423592 
-0 -1 0 0 1:0.3 2:0.1 3:0.52853924 
-0 -1 0 0 1:0.3 2:0.1 3:0.52229753 
-1 -0 0 0 1:0.3 2:0.5 3:0.63841593 
-0 -1 0 0 1:0.3 2:0.1 3:0.52853924 
-0 -1 0 0 1:0.3 2:0.1 3:0.5483011 
-0 -1 0 0 1:0.3 2:0.1 3:0.5423592 
-0 -1 0 0 1:0.3 2:0.1 3:0.5429647 
-1 -0 0 0 1:0.3 2:0.5 3:0.60124758 
-0 -1 0 0 1:0.3 2:0.1 3:0.55171269 
-1 -0 0 0 1:0.3 2:0.5 3:0.58907321 
-0 -1 0 0 1:0.3 2:0.1 3:0.55947286 
-0 -1 0 0 1:0.3 2:0.1 3:0.53198877 
-0 -1 0 0 1:0.3 2:0.1 3:0.55680788 
-0 -1 0 0 1:0.3 2:0.1 3:0.5483011 
-0 -1 0 0 1:0.3 2:0.1 3:0.55680788 
-0 -1 0 0 1:0.3 2:0.1 3:0.56176764 
-1 -0 0 0 1:0.3 2:0.5 3:0.62107807 
-0 -1 0 0 1:0.3 2:0.1 3:0.53923127 
-1 -0 0 0 1:0.3 2:0.5 3:0.58827612 
-1 -0 0 0 1:0.3 2:0.5 3:0.60124758 
-1 -0 0 0 1:0.3 2:0.8 3:0.73870432 
-0 -1 0 0 1:0.3 2:0.1 3:0.55795538 
-0 -1 0.7996603235416526 0 1:0.3 2:0.1 3:0.5112749 
-1 -0 0 0 1:0.3 2:0.5 3:0.60595256 
-0 -1 0 0 1:0.3 2:0.1 3:0.53270763 
-0 -1 0 0 1:0.3 2:0.1 3:0.53923127 
-1 -0 0 0 1:0.3 2:0.8 3:0.75356171 
-0 -1 0 0 1:0.3 2:0.1 3:0.53923127 
-0 -1 0 0 1:0.3 2:0.1 3:0.54543069 
-1 -0 0 0 1:0.3 2:0.8 3:0.79445809 
-0 -1 0 0 1:0.3 2:0.1 3:0.53198877 
-0 -1 0 0 1:0.3 2:0.1 3:0.52823478 
-0 -1 0 0 1:0.3 2:0.1 3:0.5483011 
-0 -1 0 0 1:0.3 2:0.1 3:0.5483011 
-0 -1 0 0 1:0.3 2:0.1 3:0.54744008 
-0 -1 0 0 1:0.3 2:0.1 3:0.53907669 
-0 -1 0 0 1:0.3 2:0.1 3:0.52858132 
-0 -1 0 0 1:0.3 2:0.1 3:0.52553666 
-0 -1 0 0 1:0.3 2:0.1 3:0.55383947 
-0 -1 0 0 1:0.3 2:0.1 3:0.52853924 
-0 -1 0 0 1:0.3 2:0.1 3:0.52618986 
-0 -1 0 0 1:0.3 2:0.1 3:0.53971726 
-1 -0 0 0 1:0.3 2:0.8 3:0.74121222 
-0 -1 0 0 1:0.3 2:0.1 3:0.55680788 
-1 -0 0.3791898652041443 0 1:0.3 2:1 3:0.85198182 
-0 -0 0.7849684866136433 0 1:0.7 2:1 3:0.99998829 
-0 -1 0 0 1:0.3 2:0.1 3:0.53923127 
-0 -1 0 0 1:0.3 2:0.1 3:0.56382015 
-1 -0 0 0 1:0.3 2:0.8 3:0.78849761 
-0 -1 0 0 1:0.3 2:0.1 3:0.5427106 
-1 -0.5967748570488302 0 0 1:0.3 2:0.5 3:0.55898172 
-0 -1 0 0 1:0.3 2:0.1 3:0.52853924 
-1 -0 0 0 1:0.3 2:0.5 3:0.58907321 
-1 -0 0 0 1:0.3 2:0.5 3:0.5858427 
-0 -1 0 0 1:0.3 2:0.1 3:0.5483011 
-1 -0 0 0 1:0.3 2:0.5 3:0.62381905 
-1 -0 0 0 1:0.3 2:0.5 3:0.64468527 
-0 -1 0 0 1:0.3 2:0.1 3:0.53923127 
-0 -1 0 0 1:0.3 2:0.1 3:0.51964083 
-0 -1 0 0 1:0.3 2:0.1 3:0.54701936 
-0 -1 0 0 1:0.3 2:0.1 3:0.55042452 
-1 -0 0 0 1:0.3 2:0.8 3:0.75427987 
-0 -1 0 0 1:0.3 2:0.1 3:0.5483011 
-0 -0 0 0.7650062315373132 1:0.05 2:0.1 3:1 
-0 -1 0 0 1:0.3 2:0.1 3:0.51585105 
-0 -1 0 0 1:0.3 2:0.1 3:0.51806194 
-0 -1 0 0 1:0.3 2:0.1 3:0.54963124 
-1 -0 0 0 1:0.3 2:0.8 3:0.77550559 
-0 -0 0 1 1:0.7 2:1 3:1 
-0 -1 0 0 1:0.3 2:0.1 3:0.5483011 
-0 -1 0 0 1:0.3 2:0.1 3:0.51964083 
-0 -1 0 0 1:0.3 2:0.1 3:0.5483011 
-0 -1 0 0 1:0.3 2:0.1 3:0.55658522 
-0 -1 0 0 1:0.3 2:0.1 3:0.51717189 
-0 -1 0 0 1:0.3 2:0.1 3:0.55023775 
-0 -1 0 0 1:0.3 2:0.1 3:0.56176764 
-0 -1 0 0 1:0.3 2:0.1 3:0.56403163 
-0 -1 0 0 1:0.3 2:0.1 3:0.53609481 
-1 -0 0 0 1:0.3 2:0.5 3:0.64468527 
-0 -1 0 0 1:0.3 2:0.1 3:0.53950241 
-1 -0 0 0 1:0.3 2:0.5 3:0.64464599 
-0 -1 0 0 1:0.3 2:0.1 3:0.53971726 
-0 -1 0 0 1:0.3 2:0.1 3:0.5427106 
-1 -0 0 0 1:0.3 2:0.5 3:0.56782702 
-0 -1 0 0 1:0.3 2:0.1 3:0.54093596 
-0 -1 0 0 1:0.3 2:0.1 3:0.5457347 
-0 -1 0 0 1:0.3 2:0.1 3:0.56176764 
-1 -0 0 0 1:0.3 2:0.5 3:0.57447249 
-0 -1 0 0 1:0.3 2:0.1 3:0.55030468 
-0 -1 0 0 1:0.3 2:0.1 3:0.53923127 
-1 -0 0 0 1:0.3 2:0.5 3:0.60124758 
-1 -0 0 0 1:0.3 2:0.5 3:0.59096873 
-0 -1 0 0 1:0.3 2:0.1 3:0.5423592 
-0 -1 0 0 1:0.3 2:0.1 3:0.52544349 
-0 -1 1 0.5783270333695031 1:0.3 2:0.1 3:0.51091021 
-0 -0 0 0.8227834421703661 1:0.7 2:1 3:1 
-1 -0 0 0 1:0.3 2:0.8 3:0.71649218 
-0 -1 0 0 1:0.3 2:0.1 3:0.5423592 
-1 -0 0 0 1:0.3 2:0.5 3:0.64465892 
-0 -1 0 0 1:0.3 2:0.1 3:0.56176764 
-0 -1 0 0 1:0.3 2:0.1 3:0.53779486 
-0 -1 0 0 1:0.3 2:0.1 3:0.5483011 
-1 -0 0 0 1:0.3 2:0.8 3:0.73806694 
-0 -1 0 0 1:0.3 2:0.1 3:0.5483011 
-1 -0 0 0 1:0.3 2:0.5 3:0.63841593 
-1 -0 0 0 1:0.3 2:0.5 3:0.5894298 
-1 -0 0 0 1:0.3 2:0.5 3:0.60124758 
-0 -1 0 0 1:0.3 2:0.1 3:0.52731964 
-0 -1 0 0 1:0.3 2:0.1 3:0.52732953 
-0 -0 0 0.874661896791165 1:0.05 2:0.1 3:1 
-0 -1 0 0 1:0.3 2:0.1 3:0.55953765 
-0 -1 0 0 1:0.3 2:0.1 3:0.56176764 
-0 -1 0 0 1:0.3 2:0.1 3:0.56176764 
-0 -1 0 0 1:0.3 2:0.1 3:0.53923127 
-0 -1 0 0 1:0.3 2:0.1 3:0.54615793 
-0 -1 0 0 1:0.3 2:0.1 3:0.5427106 
-1 -0 0 0 1:0.3 2:0.5 3:0.63199434 
-0 -1 0 0 1:0.3 2:0.1 3:0.56207588 
-1 -0 0 0 1:0.3 2:0.8 3:0.75621989 
-0 -1 0 0 1:0.3 2:0.1 3:0.54746464 
-0 -1 0 0 1:0.3 2:0.1 3:0.54576093 
-0 -1 0 0 1:0.3 2:0.1 3:0.53888246 
-1 -0 0 0 1:0.3 2:0.5 3:0.63841593 
-0 -1 0 0 1:0.3 2:0.1 3:0.53198877 
-1 -0 0 0 1:0.3 2:0.8 3:0.79445809 
-0 -1 0 0 1:0.3 2:0.1 3:0.53923127 
-0 -1 0 0 1:0.3 2:0.1 3:0.52853924 
-0 -1 0 0 1:0.3 2:0.1 3:0.53923127 
-0 -1 0 0 1:0.3 2:0.1 3:0.53885171 
-1 -0 0 0 1:0.3 2:0.5 3:0.61909825 
-0 -1 0 0 1:0.3 2:0.1 3:0.51815253 
-0 -1 0 0 1:0.3 2:0.1 3:0.5113394 
-0 -1 0 0 1:0.3 2:0.1 3:0.53789154 
-0 -1 0 0 1:0.3 2:0.1 3:0.55680788 
-0 -1 0 0 1:0.3 2:0.1 3:0.51546407 
-0 -1 0 0 1:0.3 2:0.1 3:0.55462256 
-0 -1 0 0 1:0.3 2:0.1 3:0.52853924 
-0 -1 0 0 1:0.3 2:0.1 3:0.55058584 
-0 -1 0 0 1:0.3 2:0.1 3:0.5483011 
-0 -1 0 0 1:0.3 2:0.1 3:0.55462256 
-1 -0 0 0 1:0.3 2:0.5 3:0.63841593 
-0 -1 0 0 1:0.3 2:0.1 3:0.56398743 
-0 -1 0 0 1:0.3 2:0.1 3:0.55265528 
-1 -0 0 0 1:0.3 2:0.5 3:0.56318283 
-0 -1 0 0 1:0.3 2:0.1 3:0.53198877 
-1 -0 0 0 1:0.3 2:1 3:0.85514015 
-1 -0 0 0 1:0.3 2:0.8 3:0.73110187 
-1 -0 0 0 1:0.3 2:0.5 3:0.5894298 
-0 -1 0 0 1:0.3 2:0.1 3:0.56207588 
-0 -1 0 0 1:0.3 2:0.1 3:0.53191283 
-0 -1 0 0 1:0.3 2:0.1 3:0.55383947 
-0 -1 0 0 1:0.3 2:0.1 3:0.5483011 
-1 -0 0 0 1:0.3 2:0.8 3:0.73262659 
-0 -1 0 0 1:0.3 2:0.1 3:0.56176764 
-0 -1 0 0 1:0.3 2:0.1 3:0.52853924 
-0 -1 0 0 1:0.3 2:0.1 3:0.5483011 
-0 -1 0 0 1:0.3 2:0.1 3:0.52853924 
-1 -0 0 0 1:0.3 2:0.5 3:0.60338619 
-0 -1 0 0 1:0.3 2:0.1 3:0.56070566 
-1 -0 0 0 1:0.3 2:0.5 3:0.60124758 
-0 -1 0 0 1:0.3 2:0.1 3:0.5483011 
-0 -0 -0 1 1:0.3 2:0.1 3:0.53679028 4:1 
-0 -0 -0 0.7006459721333427 1:0.3 2:0.1 3:0.41419029 4:2 
-0 -0 -0 1 1:0.3 2:0.8 3:0.59689155 4:1 
-0 -0 -0 1 1:0.3 2:0.1 3:0.4376992 4:1 
-0 -0 -0 1 1:0.3 2:0.1 3:0.42775804 4:1 
-0 -0 -0 1 1:0.3 2:0.1 3:0.50966904 4:5 
-0 -0.07410966038754961 -0 0 1:0.8 2:0.1 3:0.21339703 4:1 
-0 -0 -0 1 1:0.3 2:0.1 3:0.5423592 4:1 
-0 -0 -0 1 1:0.3 2:0.1 3:0.53901604 4:1 
-0 -0 -0 1 1:0.3 2:0.1 3:0.41918498 4:1 
-0 -0 -0 1 1:0.3 2:0.5 3:0.54586363 4:1 
-0 -0 -0 1 1:0.3 2:0.5 3:0.55211821 4:2 
-0 -0 -0 1 1:0.3 2:0.1 3:0.46491879 4:1 
-0 -0 -0 1 1:0.3 2:0.1 3:0.44420254 4:1 
-0 -0 -0 1 1:0.3 2:0.1 3:0.51011002 4:1 
-0 -0 -0 1 1:0.3 2:0.8 3:0.53287035 4:1 
-0 -0 -0 1 1:0.3 2:0.8 3:0.63522321 4:1 
-0 -0 -0 1 1:0.3 2:0.1 3:0.50579253 4:1 
-0.04284278192777913 -0 -0 0 1:0.3 2:1 3:1.7881393e-07 4:1 
-0 -0 -0 1 1:0.3 2:0.1 3:0.50122091 4:1 
-0 -0 -0 1 1:0.3 2:0.1 3:0.5244469 4:1 
-0 -0 -0 1 1:0.3 2:0.1 3:0.46086186 4:1 
-0 -0 -0 1 1:0.3 2:0.1 3:0.32891333 4:3 
-0.2481627579367305 -0.2260971232653423 -0.321726178017455 0 1:0.3 2:0.1 4:5 
-0 -0 -0 1 1:0.3 2:0.8 3:0.59812772 4:1 
-0 -0 -0 0.7406431735637754 1:0.3 2:0.1 3:0.1145007 4:4 
-0 -0 -0 1 1:0.3 2:0.1 3:0.52117494 4:1 
-0 -0 -0 1 1:0.3 2:0.8 3:0.5958719 4:2 
-0 -0 -0 1 1:0.3 2:0.1 3:0.50604489 4:2 
-0 -0 -0 1 1:0.3 2:0.8 3:0.56207588 4:2 
-0 -0 -0 1 1:0.3 2:0.8 3:0.56207588 4:1 
-0 -0 -0 0.1209958832856515 1:0.3 2:0.1 3:1.2755394e-05 4:5 
-0 -0 -0 1 1:0.3 2:0.1 3:0.0011168718 4:5 
-0 -0 -0 1 1:0.3 2:0.1 3:0.43621129 4:1 
-0 -0 -0 1 1:0.3 2:0.1 3:0.4592371 4:1 
-0 -0 -0 1 1:0.3 2:0.1 3:0.5 4:1 
-0.8201025942243212 -1 -0 0 1:0.05 2:0.1 3:0.0029823184 4:1 
-0 -0 -0 1 1:0.3 2:0.1 3:0.48011976 4:1 
-0 -0 -0 1 1:0.3 2:0.5 3:0.6112183 4:1 
-0 -0 -0 1 1:0.3 2:0.8 3:0.64983261 4:1 
-0 -0 -0 1 1:0.3 2:0.8 3:0.64983261 4:1 
-0 -0 -0 1 1:0.3 2:0.8 3:0.64468527 4:1 
-0 -0 -0 1 1:0.3 2:0.5 3:0.53128263 4:1 
-0 -0 -0 1 1:0.3 2:0.1 3:0.50125992 4:1 
-0 -0 -0 1 1:0.3 2:0.1 3:0.4376992 4:1 
-0 -0 -0 1 1:0.3 2:0.1 3:0.48935676 4:1 
-0 -0 -0 1 1:0.3 2:0.8 3:0.63841593 4:1 
-0 -0 -0 1 1:0.3 2:0.8 3:0.64983261 4:1 
-0.8379096496828038 -0 -0 0 1:0.3 2:1 3:3.5762787e-07 4:1 
-0 -0 -0 1 1:0.3 2:0.1 3:0.41770041 4:1 
-0 -0 -0 1 1:0.3 2:0.1 3:0.44420254 4:1 
-0 -0 -0 1 1:0.3 2:0.8 3:0.61114737 4:1 
-0 -0 -0 1 1:0.3 2:0.1 3:0.5271599 4:1 
-0 -0 -0 1 1:0.3 2:0.1 3:0.46491879 4:1 
-0 -0 -0 1 1:0.3 2:0.1 3:0.46863055 4:1 
-0 -0 -0 1 1:0.3 2:0.8 3:0.63841593 4:1 
-0 -0 -0 1 1:0.3 2:0.8 3:0.6214247 4:2 
-0 -0 -0 1 1:0.3 2:0.1 3:0.42517579 4:1 
-0 -0 -0 1 1:0.3 2:0.1 3:0.50103718 4:1 
-0 -0 -0 1 1:0.3 2:0.5 3:0.58122393 4:1 
-0 -0 -0 1 1:0.3 2:0.5 3:0.49562174 4:1 
-0 -0 -0 1 1:0.3 2:0.1 3:0.49875176 4:1 
-0 -0 -0 1 1:0.3 2:0.1 3:0.45077312 4:1 
-0 -0 -0 1 1:0.3 2:0.8 3:0.53005138 4:1 
-0 -0 -0 1 1:0.3 2:0.5 3:0.49827462 4:1 
-0 -0 -0 1 1:0.3 2:0.1 3:0.42775804 4:1 
-0 -0 -0 1 1:0.3 2:0.1 3:0.46650934 4:1 
-0 -0 -0 1 1:0.3 2:0.1 3:0.43697977 4:1 
-0 -0 -0 1 1:0.3 2:0.1 3:0.50599688 4:1 
-0 -0.2866548694336698 -0 0 1:0.3 2:1 3:4.1723251e-07 4:1 
-0 -0 -0 1 1:0.3 2:0.1 3:0.46086186 4:1 
-0.4157488384793729 -0 -0 0 1:0.3 2:1 4:1 
-1 -0 -1 1 1:0.3 2:0.8 3:0.65371707 4:1 
-0.1589161297636797 -0 -0.4230898008763114 1 1:0.3 2:0.8 3:0.64983261 4:1 
-1 -0 -1 1 1:0.3 2:0.8 3:0.64983261 4:1 
-0 -0 -0 1 1:0.3 2:0.8 3:0.6321744 4:1 
-0 -0 -0 0.6348561844198961 1:0.3 2:0.1 3:0.41419029 4:1 
-0 -0 -0 1 1:0.3 2:0.1 3:0.44578958 4:1 
-0 -0.502749414778257 -0.7899855111541745 1 1:0.3 2:0.1 3:0.54649594 4:1 
-0 -0 -0 1 1:0.3 2:0.1 3:0.49612355 4:1 
-0 -0 -0 1 1:0.3 2:0.1 3:0.41419029 4:1 
-0.4852367447103302 -1 -0.4547366765504625 0 1:1 2:0.1 3:0.010249197 4:1 
-0 -0 -0 1 1:0.3 2:0.1 3:0.41419029 4:1 
-0 -0 -0 1 1:0.3 2:0.1 3:0.41419029 4:1 
-0.2363026641932268 -0.2452833821028656 -0.2455033458462548 1 1:0.3 2:0.1 3:0.50966904 4:5 
-0 -0 -0 1 1:0.3 2:0.1 3:0.4376992 4:1 
-0 -0 -0 1 1:0.3 2:0.1 3:0.41419029 4:1 
-0 -0 -0 1 1:0.3 2:0.1 3:0.00037753582 4:5 
-0 -0 -0 1 1:0.3 2:0.1 3:0.41419029 4:1 
-0 -0 -0 1 1:0.3 2:0.1 3:0.49460536 4:1 
-0 -0 -0 1 1:0.3 2:0.1 3:0.4376992 4:1 
-0 -0 -0 1 1:0.3 2:0.1 3:0.41419029 4:1 
-0 -0 -0 1 1:0.3 2:0.1 3:0.42775804 4:1 
-0 -0 -0 1 1:0.3 2:0.1 3:0.42775804 4:1 
-0 -0 -0 1 1:0.3 2:0.1 3:0.50477448 4:1 
-0.01318684917577917 -0 -0 0 1:0.05 2:0.8 3:0.00052583218 4:1 
-0 -0 -0 1 1:0.3 2:0.5 3:0.60124758 4:1 
-0 -0 -0 1 1:0.3 2:0.1 3:0.41419029 4:1 
-0 -0 -0 1 1:0.3 2:0.1 3:0.41419029 4:1 
-0 -0 -0 1 1:0.3 2:0.8 3:0.5878731 4:1 
-0 -0 -0 1 1:0.3 2:0.1 3:0.41419029 4:1 
-0 -0 -0 1 1:0.3 2:0.8 3:0.59473684 4:1 
-0 -0 -0 1 1:0.3 2:0.1 3:0.41419029 4:1 
-0 -0 -0 1 1:0.3 2:0.1 3:0.41419029 4:1 
-0 -0 -0 1 1:0.3 2:0.1 3:0.41419029 4:1 
-0 -0 -0 1 1:0.3 2:0.1 3:0.41419029 4:1 
-0 -0 -0 1 1:0.3 2:0.1 3:0.41419029 4:1 
-0 -1 -1 1 1:0.3 2:0.1 3:0.5483011 4:1 
-0 -0 -0 1 1:0.3 2:0.1 3:0.41419029 4:1 
-0 -0 -0 1 1:0.3 2:0.1 3:0.49883235 4:2 
-0 -0 -0 1 1:0.3 2:0.1 3:0.50103718 4:1 
-0 -0.7433597543086322 -0 0 1:0.3 2:0.1 3:4.1723251e-07 4:1 
-0 -0 -0 1 1:0.3 2:0.1 3:0.4376992 4:1 
-0 -0 -0 1 1:0.3 2:0.5 3:0.60396731 4:1 
-1 -0 -0 -1 1:0.3 2:0.8 3:0.67602319 4:1 
-1 -0 -0 -1 1:0.3 2:0.8 3:0.67271242 4:1 
-0 -0 -0 -1 1:0.3 2:0.8 3:0.76286811 4:1 
-0 -0 -0 -1 1:0.3 2:0.1 3:0.59479177 4:1 
-0 -0 -0 -1 1:0.3 2:0.5 3:0.73413083 4:1 
-0 -0 -0 -1 1:0.3 2:0.8 3:0.82173255 4:1 
-0 -0 -0 -1 1:0.3 2:0.1 3:0.67274413 4:1 
-0 -0 -0 -1 1:0.3 2:0.1 3:0.59330365 4:1 
-0 -0 -0 -1 1:0.3 2:0.1 3:0.62639573 4:1 
-0.3031201570591839 -0.2897022518459683 -0.2851897418892107 -0 1:1 2:0.1 3:1 4:5 
-0 -0 -0 -1 1:0.3 2:0.1 3:0.57499042 4:1 
-0 -0 -0 -1 1:0.3 2:0.1 3:0.67012006 4:1 
-0 -0 -0 -1 1:0.3 2:0.8 3:0.78376508 4:1 
-0 -0 -0 -1 1:0.3 2:0.1 3:0.63841593 4:1 
-0.6283066719977221 -0 -0.3293876383448823 -1 1:0.3 2:1 3:0.86530033 4:1 
-0 -0 -0 -1 1:0.3 2:0.1 3:0.61622205 4:1 
-0 -0 -0 -1 1:0.3 2:0.1 3:0.6424028 4:1 
-0 -0 -0 -1 1:0.3 2:0.5 3:0.65866119 4:1 
-0.7259834980580532 -0 -0 -1 1:0.3 2:0.8 3:0.68176791 4:1 
-0 -1 -0 -1 1:0.3 2:0.1 3:0.55680788 4:1 
-0 -0 -0 -1 1:0.3 2:0.5 3:0.62911516 4:1 
-0 -0 -0 -1 1:0.3 2:0.1 3:0.56317508 4:1 
-0 -0 -0 -1 1:0.3 2:0.1 3:0.63705775 4:1 
-0 -0 -0 -1 1:0.3 2:0.5 3:0.67897174 4:1 
-0 -0 -0 -1 1:0.3 2:0.1 3:0.60493365 4:1 
-0 -0 -0 -1 1:0.3 2:0.5 3:0.68958482 4:1 
-0 -0 -0 -1 1:0.3 2:0.1 3:0.63841593 4:1 
-0 -0 -0 -1 1:0.3 2:0.1 3:0.56176764 4:1 
-0 -0 -0 -1 1:0.3 2:0.1 3:0.68958482 4:1 
-0 -0 -0 -1 1:0.3 2:0.1 3:0.56176764 4:1 
-0 -0 -0 -1 1:0.3 2:0.1 3:0.68958482 4:1 
-0 -0 -0 -0.9626356752471383 1:0.3 2:0.1 3:0.69931427 4:1 
-0 -0 -0 -1 1:0.3 2:0.1 3:0.62850305 4:1 
-0.243265149200669 -0.226453297955774 -0.2472399224049006 -1 1:0.3 2:0.1 3:0.99999456 4:5 
-0 -0 -0 -1 1:0.3 2:0.1 3:0.64634541 4:1 
-0 -0 -0 -1 1:0.3 2:0.1 3:0.58576313 4:1 
-0 -0 -0 -1 1:0.3 2:0.8 3:0.76318698 4:1 
-0 -1 -0 -1 1:0.3 2:0.1 3:0.55804202 4:1 
-0 -0 -0 -1 1:0.3 2:0.1 3:0.5670287 4:1 
-0 -0 -0 -1 1:0.3 2:0.1 3:0.71649218 4:2 
-0 -0 -0 -1 1:0.3 2:0.5 3:0.7820407 4:2 
-0 -0 -0 -1 1:0.3 2:0.1 3:0.62648857 4:1 
-0 -0 -0 -1 1:0.3 2:0.1 3:0.62713748 4:1 
-0 -0 -0 -1 1:0.3 2:0.1 3:0.6214247 4:1 
-0 -0 -0 -1 1:0.3 2:0.8 3:0.81588531 4:1 
-0 -0 -0 -1 1:0.3 2:0.1 3:0.66948593 4:1 
-0 -0 -0 -1 1:0.3 2:0.1 3:0.69686845 4:1 
-0 -0 -0.4353385267068383 -0 1:1 2:0.1 3:0.93214897 4:1 
-0 -0 -0 -1 1:0.3 2:0.1 3:0.68152466 4:1 
-0 -0 -0 -1 1:0.3 2:0.8 3:0.79749687 4:1 
-0 -0 -0 -1 1:0.3 2:0.1 3:0.59197047 4:1 
-0 -0 -0 -1 1:0.3 2:0.1 3:0.61393481 4:1 
-0 -0 -0 -1 1:0.3 2:0.1 3:0.65856561 4:1 
-0 -0 -0 -1 1:0.3 2:0.1 3:0.57663739 4:1 
-0 -0 -0 -1 1:0.3 2:0.1 3:0.6206843 4:1 
-0 -0 -0 -1 1:0.3 2:0.1 3:0.62535816 4:1 
-0 -0 -0 -1 1:0.3 2:0.1 3:0.58576313 4:1 
-0 -1 -0 -1 1:0.3 2:0.1 3:0.55665085 4:1 
-0 -0 -0 -1 1:0.3 2:0.1 3:0.70267731 4:2 
-0 -0 -0 -1 1:0.3 2:0.1 3:0.58321872 4:1 
-0 -0 -0 -1 1:0.3 2:0.1 3:0.63841593 4:1 
-0 -0 -0 -1 1:0.3 2:0.8 3:0.79512325 4:1 
-0 -0 -0 -1 1:0.3 2:0.1 3:0.68593693 4:3 
-0 -0 -0 -1 1:0.3 2:0.1 3:0.99105414 4:5 
-0 -0.05537544856479693 -0 -0 1:0.8 2:0.1 3:0.7119675 4:1 
-0 -0 -0 -1 1:0.3 2:0.1 3:0.58576313 4:1 
-0 -0 -0 -1 1:0.3 2:0.1 3:0.60443106 4:1 
-0 -0 -1 -0 1:0.05 2:0.1 3:0.99999978 4:1 
-0 -0 -0 -1 1:0.3 2:0.1 3:0.64468527 4:1 
-0 -0 -0 -1 1:0.3 2:0.1 3:0.67798558 4:1 
-0 -0 -0 -1 1:0.3 2:0.1 3:0.67496744 4:1 
-0 -0 -0 -1 1:0.3 2:0.8 3:0.71166766 4:1 
-0 -0 -0 -1 1:0.3 2:0.1 3:0.65866348 4:1 
-0 -0 -0 -1 1:0.3 2:0.8 3:0.81298335 4:1 
-0 -0 -0 -1 1:0.3 2:0.1 3:0.61868885 4:1 
-0 -0 -0 -1 1:0.3 2:0.1 3:0.5962168 4:1 
-0 -0 -0 -1 1:0.3 2:0.1 3:0.59027144 4:1 
-0 -0 -0 -1 1:0.3 2:0.1 3:0.65866348 4:1 
-0 -0 -0 -1 1:0.3 2:0.1 3:0.68958482 4:1 
-0 -0 -0 -1 1:0.3 2:0.1 3:0.57450184 4:1 
-0 -0 -0 -1 1:0.3 2:0.5 3:0.72884095 4:1 
-0 -0 -0 -1 1:0.3 2:0.1 3:0.66666666 4:1 
-0 -0 -0 -1 1:0.3 2:0.8 3:0.69957346 4:1 
-0 -0 -0 -1 1:0.3 2:0.1 3:0.65492758 4:1 
-0 -0 -0 -1 1:0.3 2:0.1 3:0.67696148 4:1 
-0 -0 -0 -1 1:0.3 2:0.1 3:0.78910752 4:4 
-0 -0 -0 -1 1:0.3 2:0.1 3:0.5894298 4:1 
-0 -0 -0 -0.2345055381555276 1:0.4 2:0.5 3:1 4:4 
-0 -0 -0.4835165212681558 -0 1:0.05 2:0.1 3:1 4:1 
-0 -0 -1 -0 1:0.8 2:1 3:1 4:1 
-0 -0 -0 -1 1:0.3 2:0.8 3:0.82897724 4:2 
-0.9211966037386143 -1 -0.8834338277518571 -1 1:0.3 2:0.1 3:0.55442613 4:1 
-0 -0 -0 -1 1:0.3 2:0.1 3:0.5894298 4:1 
-0 -0 -0 -1 1:0.3 2:0.1 3:0.67955026 4:1 
-0.1671305393914131 -0.07539567994701823 -0.7534249613034796 -0 1:0.8 2:1 3:1 4:1 
-0 -0 -0 -1 1:0.3 2:0.5 3:0.66153118 4:1 
-0 -0 -0 -1 1:0.8 2:0.1 3:1 4:5 
-0 -0 -0 -1 1:0.3 2:0.5 3:0.65444979 4:1 
-0 -0 -0 -1 1:0.3 2:0.1 3:0.6116561 4:1 
-0 -0 -0 -1 1:0.3 2:0.1 3:0.58576313 4:2 
-0 -0 -0 -1 1:0.3 2:0.1 3:0.58926472 4:1 
-0 -0 -0 -1 1:0.3 2:0.8 3:0.76201846 4:1 
-0 -0 -0 -1 1:0.8 2:0.1 3:1 4:5 
-0 -0 -0 -1 1:0.3 2:0.1 3:0.5612472 4:1 
-0 -0.1536309970478005 -0 -0 1:1 2:0.8 3:1 4:1 
-0 -0 -0 -1 1:0.3 2:0.1 3:0.5916802 4:1 
-0 -0 -0 -1 1:0.3 2:0.8 3:0.69623613 4:1 
-0 -0 -0 -1 1:0.3 2:0.1 3:0.66347197 4:1 
-0 -0 -0.1179611065030649 -0 1:0.3 2:1 3:1 4:1 
-0 -0 -0 -1 1:0.3 2:0.1 3:0.59529188 4:1 
-0 -0 -0 -1 1:0.3 2:0.8 3:0.83850834 4:2 
-0 -0 -0 -1 1:0.3 2:0.1 3:0.58576313 4:1 
